470 200
user 0.107281305 -0.12337106 -0.10993204 0.25830343 0.26510623 -0.26610216 0.13331035 0.3709743 -0.22661176 0.11952053 -0.1966829 -0.13323139 -0.08322855 0.22320856 -0.0042111017 -0.12365124 -0.007586591 0.09342297 0.013769623 -0.37751132 0.17003185 -0.1782894 0.039084353 0.014611967 -0.015068609 -0.042438958 -0.08508771 -0.24671331 -0.23991434 0.04962787 0.24353482 0.10808775 0.12112418 -0.08771736 -0.03133775 0.20458569 0.13325904 -0.17864838 -0.15757917 -0.34677386 -0.19269258 -0.051520243 -0.14306356 0.07435431 0.2617503 -0.025811855 -0.14853404 -0.16219376 0.19292001 0.14238113 0.118234634 -0.13447797 0.04574415 -0.076333426 0.055530537 -0.12953046 -0.031711094 -0.18777333 -0.32885373 0.07141298 -0.1379613 -0.011730939 0.013514233 -0.07170642 -0.3251965 0.0028444119 -0.07199688 0.43316582 -0.24395712 0.23279253 -0.050541326 0.10778791 0.270612 -0.096119106 0.19038068 0.050655387 0.20333625 -0.21525458 -0.30600554 -0.039059002 -0.08212076 -0.13098471 -0.21292408 0.38901746 -0.29177174 -0.07655352 0.08204336 0.27522305 -0.022056008 0.069471925 0.21605185 0.21205373 0.124203525 0.29294807 0.3974426 0.20216735 -0.026467703 -0.15337808 0.24019316 0.120700695 -0.21534105 0.35937923 0.19395544 -0.12856194 -0.1691993 -0.2758914 0.04348307 0.32388303 -0.32373253 -0.29968068 -0.10541224 -0.30105454 -0.038094092 -0.10641258 0.21587731 -0.09144714 0.09988108 -0.42988983 -0.017976843 -0.39418262 0.10044051 0.2618496 0.09894918 -0.1953153 -0.13574798 0.07818366 -0.20027715 -0.12115812 -0.034892973 0.008839822 0.11350324 0.00079794985 -0.104763456 -0.067132145 -0.09466872 0.25660828 -0.16239668 -0.1605801 -0.120005675 -0.3010972 0.33867943 -0.2854427 -0.026043128 -0.005909006 0.040389437 -0.045667246 -0.19739908 0.035940785 0.034380745 0.07069726 0.14012681 -0.19626133 0.0870784 0.14754297 -0.32111993 0.3417564 0.1652651 0.195626 -0.17373025 0.15061219 0.011346537 0.0885962 -0.16231091 -0.06048681 0.054938737 0.26973763 0.18428135 -0.09289403 -0.09357359 0.051222727 -0.23943307 -0.029005764 -0.03414973 -0.042782802 0.11184175 0.078008495 -0.16318937 0.13253094 0.13682911 0.16931097 -0.085942805 0.07577623 -0.10350958 0.05795152 0.1558762 0.09124876 0.0067293635 0.15913838 0.3012518 -0.016086238 0.11602737 0.027278727 -0.2695881 -0.2363825 0.17952156 0.09321977 0.15774302 -0.34464812 0.091959715 -0.18193468
multistop 0.109528735 -0.122220695 -0.14059876 0.28520143 0.26962534 -0.2581162 0.13561098 0.3910566 -0.24014515 0.14110978 -0.19535835 -0.14041062 -0.04559217 0.23538315 -0.03291275 -0.14857523 0.018349754 0.09986528 0.016618012 -0.39351904 0.19373529 -0.17539053 0.00450415 0.021548312 -0.021348212 -0.06821898 -0.087662816 -0.23815265 -0.2304158 0.04834301 0.28015438 0.109757446 0.09059335 -0.060490254 -0.037454877 0.2201651 0.14618297 -0.16354582 -0.1642509 -0.34046137 -0.15913709 -0.056088954 -0.122618124 0.061069746 0.29080138 -0.012492834 -0.1327439 -0.1424771 0.18489742 0.1379452 0.10185553 -0.14949258 0.031520996 -0.099165514 0.03461787 -0.12095603 -0.01585152 -0.18734606 -0.32832903 0.04339615 -0.14707623 -0.025723394 0.03189772 -0.07693552 -0.33688903 0.01874369 -0.076892845 0.44530937 -0.23633577 0.22947514 -0.060187805 0.087633766 0.27988243 -0.09133965 0.19806147 0.0569869 0.21244678 -0.21009667 -0.32893094 -0.04662196 -0.11573136 -0.15479656 -0.26116836 0.41704044 -0.2823619 -0.08778251 0.084496036 0.2601924 0.009664582 0.061615918 0.20128845 0.22616851 0.13503507 0.31767315 0.41245052 0.22494459 0.0033539215 -0.16582702 0.2230055 0.107665084 -0.21839869 0.3855656 0.1868422 -0.11631992 -0.19426392 -0.26714942 0.030599896 0.34369943 -0.323257 -0.30967566 -0.105841175 -0.2771788 -0.027934803 -0.092746235 0.21015461 -0.07646192 0.117070474 -0.47280207 0.002217216 -0.37889963 0.076420724 0.28230506 0.12820515 -0.21257354 -0.16685271 0.07913854 -0.23978187 -0.1156816 -0.0057951156 -0.001925896 0.116001844 0.0010644922 -0.10288311 -0.0879383 -0.103650704 0.25404313 -0.1749779 -0.18984106 -0.11854515 -0.32453117 0.34332788 -0.29250428 -0.020125309 -0.018879998 0.022548463 -0.054216214 -0.22788021 0.031510055 0.047206514 0.04437431 0.12892383 -0.16520333 0.06273995 0.14536317 -0.33376217 0.346895 0.16333899 0.21325645 -0.1535973 0.16061684 0.06397736 0.096890874 -0.1628558 -0.05873532 0.019410964 0.2507388 0.16352154 -0.067623794 -0.11396798 0.049895104 -0.26075783 -0.019859865 -0.0040929397 -0.03880252 0.12464021 0.08988648 -0.15865849 0.12609318 0.14677857 0.19441411 -0.08463309 0.08882992 -0.093619145 0.09969336 0.15195818 0.103854895 -0.019695347 0.1642703 0.3162666 -0.008999242 0.13916704 -0.0018402548 -0.2797351 -0.22055918 0.19596699 0.07589298 0.1258896 -0.36203355 0.09890251 -0.20855112
i 0.1111033 -0.13479973 -0.12677768 0.2729148 0.29594555 -0.27839643 0.13887772 0.39641744 -0.24783015 0.14083114 -0.22094022 -0.14251342 -0.09054942 0.24018472 -0.0068736873 -0.1345352 -0.012303876 0.101604365 0.028630247 -0.40329856 0.17627856 -0.20100279 0.04443812 0.022925949 -0.0202175 -0.043650784 -0.09205054 -0.26141068 -0.25553167 0.0578367 0.27138203 0.12057958 0.1265265 -0.09886029 -0.028863572 0.2195216 0.13525286 -0.1833923 -0.17265628 -0.37100172 -0.19860686 -0.06580728 -0.15213145 0.090006046 0.28984368 -0.03387549 -0.14822492 -0.18014807 0.20558555 0.14314409 0.13578224 -0.14222641 0.055785026 -0.08485485 0.052590825 -0.13937546 -0.045378573 -0.20401843 -0.35485247 0.0646748 -0.13841417 -0.019423181 0.019815661 -0.071859606 -0.36080754 -0.0014602925 -0.06531385 0.47651646 -0.26047447 0.2560967 -0.062280428 0.11830153 0.29428867 -0.09217281 0.20815878 0.059645355 0.21253155 -0.22877501 -0.3207122 -0.042510487 -0.09309933 -0.14629482 -0.23204394 0.41209543 -0.31195262 -0.089491144 0.09216271 0.309549 -0.025648134 0.06749034 0.23620114 0.22601713 0.13766517 0.31353283 0.42032453 0.210745 -0.013721224 -0.15384167 0.2594316 0.1272413 -0.23275083 0.38447654 0.2065175 -0.1449087 -0.19718969 -0.2949004 0.047482762 0.34526107 -0.35289323 -0.32531443 -0.117407404 -0.31845915 -0.04285898 -0.12694068 0.22746426 -0.111636564 0.0990566 -0.47524256 -0.019495666 -0.4254205 0.1000975 0.29297668 0.108725764 -0.19956721 -0.15493593 0.08426378 -0.21065083 -0.14018992 -0.032813586 0.012038878 0.12021408 0.0011330228 -0.117756434 -0.07305604 -0.108047634 0.28317022 -0.1741348 -0.17407039 -0.13219589 -0.3396388 0.36677617 -0.310456 -0.030121658 -0.0078908615 0.048449352 -0.05689781 -0.22429436 0.045643244 0.04006393 0.068903156 0.14659888 -0.21075745 0.09894065 0.16123906 -0.3569371 0.36644778 0.18262553 0.20394638 -0.1930254 0.15828043 0.02302715 0.09702682 -0.16772175 -0.067156225 0.05809572 0.28385 0.1946959 -0.093559265 -0.112490006 0.04667034 -0.2524626 -0.02266207 -0.03546969 -0.04538308 0.11981429 0.093053445 -0.18091744 0.14690417 0.14910412 0.18567657 -0.08105178 0.07600374 -0.11189403 0.058612697 0.16497837 0.09092223 -0.0018815724 0.18466796 0.3265288 -0.013259659 0.13255794 0.037676685 -0.29530206 -0.25711134 0.19961956 0.10181309 0.1647715 -0.38174167 0.11093543 -0.20465337
kiss 0.119377375 -0.13379015 -0.1247126 0.28051308 0.28835583 -0.2798114 0.14534125 0.39644915 -0.24064107 0.1393853 -0.2089982 -0.14225696 -0.074263796 0.24368323 -0.010414977 -0.14003664 0.00049372984 0.100875326 0.020081129 -0.40236253 0.18685517 -0.19461294 0.035300244 0.014119089 -0.017463183 -0.04822953 -0.08986741 -0.2685097 -0.25077224 0.0458553 0.2712014 0.11852854 0.12028763 -0.08005797 -0.0384246 0.2261215 0.13583739 -0.18368609 -0.1762412 -0.37326884 -0.19037528 -0.06200835 -0.13908607 0.07227909 0.29030454 -0.024438841 -0.16259222 -0.17578231 0.19856732 0.14718762 0.12683836 -0.15217012 0.04401009 -0.08404377 0.049242843 -0.13783927 -0.031615715 -0.2052436 -0.355882 0.054911092 -0.14739789 -0.021991454 0.02436671 -0.07530776 -0.35378814 0.009523199 -0.082351 0.46144104 -0.25985318 0.24110071 -0.058793142 0.10982252 0.29349935 -0.09312547 0.20731054 0.051910773 0.21472014 -0.22142518 -0.33288744 -0.034593314 -0.09091552 -0.14967205 -0.24547891 0.41912746 -0.3071188 -0.08933269 0.09396669 0.29013166 -0.01856892 0.07231969 0.21880312 0.22830158 0.13348655 0.3153235 0.42247504 0.2195105 -0.013815548 -0.163945 0.24287735 0.1258387 -0.22293518 0.3791716 0.20892225 -0.12690914 -0.19381586 -0.29379597 0.04125942 0.34624067 -0.34351486 -0.322929 -0.112738125 -0.31078807 -0.028559458 -0.11343439 0.22913866 -0.095809415 0.110037625 -0.47155195 -0.01552164 -0.42105433 0.1018605 0.28983885 0.107458964 -0.2188839 -0.16006157 0.08319536 -0.22594412 -0.123965144 -0.030585092 0.005630342 0.11182596 0.0080398405 -0.10846337 -0.076096036 -0.105959035 0.272172 -0.18387313 -0.18432038 -0.13985096 -0.33338475 0.36224058 -0.29939097 -0.023839232 -0.0102378 0.049465172 -0.060001463 -0.22532178 0.039255135 0.04415515 0.06600159 0.14051493 -0.1944648 0.09014655 0.15367058 -0.35396215 0.36561844 0.16268389 0.21345118 -0.1829903 0.16702712 0.034527034 0.094119586 -0.17655702 -0.058989484 0.046062082 0.28404438 0.18057579 -0.08729723 -0.11100301 0.047291487 -0.25416943 -0.02247715 -0.027427876 -0.051089093 0.12139766 0.09213188 -0.16216749 0.13328496 0.14807919 0.18281244 -0.092037894 0.07906667 -0.11792203 0.07659574 0.16402048 0.09923102 7.836451e-05 0.1765368 0.3278744 -0.012911162 0.13535091 0.02029265 -0.3000925 -0.23956983 0.19592969 0.09254615 0.15269111 -0.3726371 0.11158336 -0.20534708
the 0.10371941 -0.11872153 -0.11790098 0.2788665 0.2793347 -0.26708022 0.1446188 0.3806031 -0.2355534 0.13844346 -0.20206347 -0.14330146 -0.058762204 0.23242982 -0.0041827844 -0.1392156 -0.007081129 0.09551241 0.017018614 -0.38729212 0.18389562 -0.1818494 0.02735875 0.011013675 -0.019227535 -0.049194477 -0.08868562 -0.26210448 -0.2385748 0.038379543 0.26954466 0.10741207 0.11988287 -0.06828361 -0.034533262 0.21892805 0.13520588 -0.16437328 -0.16569449 -0.3604882 -0.18486242 -0.053914938 -0.13691811 0.07295178 0.28115335 -0.029260451 -0.15226963 -0.15673941 0.18943448 0.1422107 0.12083114 -0.1442223 0.039975446 -0.08908899 0.054909326 -0.12803222 -0.023063252 -0.19295663 -0.33571956 0.050088983 -0.1419745 -0.02514035 0.02833587 -0.07747954 -0.35412636 0.0037746765 -0.08095026 0.450342 -0.2522373 0.2375964 -0.06488906 0.10242971 0.29115394 -0.082882844 0.19228436 0.051132783 0.19700897 -0.2202472 -0.3311382 -0.037096024 -0.0938938 -0.14522214 -0.23390074 0.40644482 -0.28833655 -0.08417555 0.08936821 0.27865472 -0.009406816 0.07528339 0.20701823 0.22291154 0.13695422 0.30765405 0.41391373 0.21507937 -0.013981606 -0.14996098 0.24104415 0.11273922 -0.22435068 0.36150107 0.1937665 -0.1203865 -0.19164449 -0.2910592 0.028736215 0.34237197 -0.3282285 -0.31139097 -0.10714035 -0.30170086 -0.031365965 -0.105676696 0.21627907 -0.08276206 0.10786558 -0.46622995 -0.0029649043 -0.4074071 0.096997276 0.28387633 0.10529012 -0.21154018 -0.1462024 0.07649962 -0.22432716 -0.11849132 -0.025138522 -0.002487428 0.11751809 0.0063259564 -0.10082073 -0.064702235 -0.10893342 0.27148294 -0.17286195 -0.17937104 -0.13006225 -0.31728873 0.35183328 -0.28310695 -0.02549223 -0.018602036 0.041676763 -0.05526145 -0.22140531 0.045507725 0.04131633 0.06391937 0.1421589 -0.17850472 0.07622849 0.15926215 -0.3441395 0.3419641 0.1586572 0.20153537 -0.1689299 0.15687944 0.035321515 0.098622054 -0.16255671 -0.061321314 0.04009498 0.26455808 0.17506142 -0.095631115 -0.11017227 0.04833875 -0.2487981 -0.014310677 -0.032324474 -0.05747585 0.119655594 0.087182365 -0.16313882 0.12560277 0.14363877 0.18466263 -0.08564521 0.076527126 -0.11445172 0.08016241 0.15187255 0.09334144 -0.010981596 0.1657247 0.31894282 -0.001537102 0.12505735 0.023729166 -0.28106505 -0.22931507 0.1946145 0.08207385 0.13871138 -0.3508301 0.113611996 -0.19360128
exclamationMark 0.11050881 -0.12459569 -0.10753367 0.24427627 0.26339194 -0.2605167 0.12675238 0.36493182 -0.2221992 0.115492776 -0.19440387 -0.13233481 -0.074608974 0.21362644 -0.00028463744 -0.11798234 -0.0077255634 0.090318315 0.02291116 -0.37261328 0.16087699 -0.1782969 0.038848188 0.0130747715 -0.022388939 -0.037084904 -0.084227376 -0.24817376 -0.22730608 0.052172713 0.2424129 0.10866472 0.12102377 -0.079958946 -0.02691268 0.20654461 0.1282292 -0.17188676 -0.15968563 -0.3405556 -0.18586135 -0.05609405 -0.13930675 0.080281906 0.25611314 -0.031958714 -0.14311743 -0.16674745 0.18201584 0.1362675 0.1203173 -0.13528441 0.042116676 -0.07444681 0.05241237 -0.124349974 -0.035175517 -0.18464717 -0.32010257 0.06569575 -0.13745002 -0.013033359 0.017773865 -0.0639047 -0.32689005 0.0031896478 -0.072856106 0.41975638 -0.2360191 0.22594239 -0.0500605 0.11184075 0.26585498 -0.08317033 0.18733194 0.055813354 0.19826916 -0.21711366 -0.30069655 -0.030696396 -0.07523374 -0.124255255 -0.20728742 0.3821504 -0.28951836 -0.07404445 0.07640499 0.27815333 -0.016218655 0.067705 0.21509129 0.2104039 0.12251859 0.29135293 0.38268092 0.19661516 -0.0152433915 -0.14774643 0.23766978 0.11166613 -0.20202377 0.35441926 0.1885071 -0.12670755 -0.17246912 -0.2733158 0.039781086 0.31840608 -0.3202871 -0.29446396 -0.09962532 -0.29079017 -0.036874257 -0.11019069 0.21331237 -0.09687908 0.09179466 -0.43348223 -0.018873889 -0.39372393 0.09468489 0.2582081 0.09255869 -0.18985255 -0.14047173 0.07189255 -0.19723001 -0.11922973 -0.031709895 0.0075572506 0.10438865 -0.00016592316 -0.10368254 -0.061982382 -0.09695686 0.25284514 -0.16220573 -0.16186953 -0.12600358 -0.30702212 0.32577866 -0.27921447 -0.01980894 -0.001737479 0.042557206 -0.050264698 -0.19617097 0.03653345 0.034318518 0.07199837 0.13528031 -0.18984711 0.091189854 0.14532726 -0.32146055 0.33434296 0.15911666 0.19305442 -0.17255321 0.14286682 0.017557234 0.087178655 -0.15969965 -0.05746405 0.05020165 0.26534778 0.183904 -0.0836672 -0.099586405 0.049245145 -0.23392606 -0.019085666 -0.03472418 -0.04151906 0.11062749 0.08512085 -0.15957528 0.13517481 0.13287595 0.16456755 -0.079751804 0.07909232 -0.10791994 0.057906576 0.15638733 0.0896914 0.0020383152 0.15754284 0.30092 -0.012515094 0.117214 0.02815674 -0.27036884 -0.2281735 0.17974904 0.087096475 0.14864093 -0.34284145 0.093645975 -0.18179753
to 0.12866004 -0.1548594 -0.13487141 0.30937892 0.32915136 -0.3123667 0.1570598 0.4577673 -0.26700866 0.15423381 -0.24650553 -0.16614774 -0.09104858 0.26779452 -0.015956867 -0.16392225 -0.0050591035 0.11380376 0.02935824 -0.45474166 0.20409049 -0.21790689 0.03378164 0.02457708 -0.022490209 -0.05187682 -0.11134186 -0.29496235 -0.2844846 0.06600156 0.30096164 0.13444981 0.13992734 -0.09306893 -0.042000633 0.24481946 0.15526749 -0.21028544 -0.19216868 -0.41920447 -0.22204153 -0.064287655 -0.16359995 0.08698076 0.32128888 -0.039600283 -0.16756591 -0.19682166 0.22273107 0.17265627 0.14833532 -0.17098616 0.052999463 -0.10189299 0.061942063 -0.15175827 -0.033847637 -0.22192743 -0.39143237 0.075359404 -0.17099342 -0.021607291 0.027147863 -0.0829473 -0.40237197 0.0006016599 -0.082062565 0.5245854 -0.2954104 0.27982312 -0.06105602 0.12832634 0.33933783 -0.111136585 0.23079605 0.06211855 0.24405117 -0.26410574 -0.38185194 -0.044447273 -0.111112595 -0.15930483 -0.27258775 0.48122787 -0.3529998 -0.097825564 0.10280366 0.3363036 -0.020248106 0.082138084 0.2548659 0.25817996 0.15793373 0.35664082 0.4822829 0.24819478 -0.013325011 -0.178626 0.28926098 0.14557137 -0.26396987 0.44000098 0.22503462 -0.15515332 -0.22436307 -0.33796322 0.035471074 0.39217663 -0.39146072 -0.36314696 -0.13119599 -0.35090098 -0.047033697 -0.13342965 0.2636843 -0.105045386 0.1252671 -0.5373941 -0.01190539 -0.4802552 0.12229893 0.3332439 0.12827362 -0.23369418 -0.17000812 0.10154589 -0.25765872 -0.15566996 -0.03184133 0.010145865 0.13832515 0.008728058 -0.11992269 -0.08438037 -0.119326144 0.30882818 -0.2132211 -0.20365272 -0.1475235 -0.38061452 0.40496534 -0.3460141 -0.023313778 -0.010191634 0.04595096 -0.06736375 -0.25640067 0.04438218 0.048748367 0.07154293 0.16283451 -0.22220801 0.09498158 0.17969728 -0.39894375 0.41181535 0.19733985 0.2366839 -0.20926523 0.18933114 0.036828805 0.11156806 -0.19685562 -0.064159185 0.06203125 0.3186196 0.21992895 -0.10512299 -0.118633434 0.060513712 -0.29329047 -0.03214011 -0.04375985 -0.05238716 0.14538187 0.10849875 -0.19531089 0.16066031 0.16864088 0.20930819 -0.09790026 0.08722416 -0.12289632 0.08609197 0.18773648 0.1170241 0.0012906061 0.20052871 0.3691127 -0.019309074 0.15435493 0.029926354 -0.3255836 -0.28049207 0.21561344 0.10364068 0.18350257 -0.42437005 0.11639736 -0.22231889
a 0.10939199 -0.115121335 -0.1140511 0.2606171 0.27159548 -0.26423138 0.13727866 0.37812907 -0.21605931 0.1259684 -0.19296682 -0.13890745 -0.068874806 0.22035368 -0.015005945 -0.12953572 0.0016176408 0.09355916 0.020444429 -0.37497777 0.17979705 -0.17961966 0.02222992 0.012395894 -0.023085931 -0.0478491 -0.08458602 -0.25102654 -0.22787376 0.041228637 0.24946195 0.10620387 0.111807846 -0.075301416 -0.034575097 0.20362109 0.13894954 -0.15923171 -0.16080907 -0.3401872 -0.17639893 -0.053543504 -0.13016783 0.07088055 0.2727291 -0.024150187 -0.1481218 -0.15637709 0.1866122 0.14335096 0.118175134 -0.136674 0.044488356 -0.08710945 0.049863122 -0.12652136 -0.01635724 -0.18175992 -0.3276003 0.055345077 -0.13979976 -0.02234127 0.022879083 -0.068155356 -0.3295458 0.007207573 -0.07691054 0.43151417 -0.23886354 0.22704096 -0.05904745 0.09448952 0.28405565 -0.08701636 0.18991983 0.048154082 0.20327298 -0.20813465 -0.3141684 -0.03627586 -0.0958352 -0.13675585 -0.22927961 0.38944662 -0.28322157 -0.082247145 0.09173741 0.2760993 -0.013097163 0.06478959 0.20801243 0.21562709 0.13364597 0.30091032 0.40034446 0.20147236 -0.013539869 -0.14682183 0.22600213 0.11738187 -0.21623923 0.35809252 0.19118945 -0.11873126 -0.18541317 -0.27949193 0.025363032 0.32991633 -0.31816545 -0.29403546 -0.10626012 -0.2948183 -0.030834757 -0.0982142 0.2083661 -0.08748332 0.100176014 -0.4395227 -0.005966976 -0.3899102 0.09138803 0.27395687 0.10113987 -0.20392762 -0.14877027 0.07599042 -0.21295013 -0.115679406 -0.022864688 -0.0041248593 0.106698975 -0.0011987045 -0.09839873 -0.06350849 -0.106000006 0.26460552 -0.1662086 -0.17945205 -0.1306318 -0.30661738 0.3419541 -0.2832711 -0.026324565 -0.010665246 0.0409751 -0.049608428 -0.21476273 0.031474065 0.035434354 0.0548828 0.1322458 -0.17947151 0.081318885 0.15533818 -0.33366868 0.33913827 0.15983142 0.1965694 -0.16245648 0.15694001 0.036155403 0.085402235 -0.1652129 -0.061061695 0.047961824 0.2561557 0.1730692 -0.087162875 -0.10409411 0.051507346 -0.24685194 -0.019945292 -0.025907045 -0.05161712 0.11978023 0.09237337 -0.16099064 0.12329621 0.13677154 0.17709324 -0.089523144 0.07431037 -0.109176494 0.07681986 0.14420529 0.09786347 -0.009630909 0.1571514 0.31017286 -0.0032392805 0.12312823 0.019349445 -0.27686363 -0.2288358 0.1798574 0.087157406 0.14225736 -0.33659807 0.1070806 -0.18422268
you 0.1036787 -0.12525602 -0.107836746 0.24039418 0.26381844 -0.24830712 0.12062683 0.3519398 -0.2145306 0.115371816 -0.19392744 -0.12811542 -0.08581401 0.2157154 -0.0052389456 -0.10803264 -0.016354492 0.08709423 0.016722692 -0.3609278 0.16230293 -0.16701238 0.041151322 0.0146241775 -0.016947225 -0.029241854 -0.075374156 -0.24038449 -0.22754322 0.04815011 0.23582506 0.09986543 0.113831826 -0.08903835 -0.027072066 0.2007298 0.12586707 -0.16651298 -0.15977944 -0.33164692 -0.17608233 -0.058714647 -0.13478509 0.07744805 0.2543873 -0.023628268 -0.14337654 -0.16784422 0.18597649 0.13244347 0.11738579 -0.13419904 0.049051538 -0.066467315 0.04659528 -0.12103303 -0.04161112 -0.18625778 -0.31838423 0.063454725 -0.12523048 -0.009861107 0.018612562 -0.059855808 -0.3091191 0.0059950417 -0.07253617 0.41704983 -0.23051363 0.22436401 -0.044481017 0.10739584 0.25693664 -0.08881187 0.18126015 0.04083622 0.19547886 -0.20856844 -0.28071994 -0.034333922 -0.07559976 -0.13553907 -0.21021174 0.35760427 -0.28052026 -0.07332609 0.07052051 0.25933844 -0.024333702 0.059958406 0.2129004 0.20603797 0.123991534 0.28112182 0.3687665 0.19384874 -0.028803164 -0.14394835 0.22087257 0.119172335 -0.19928747 0.34237075 0.18249308 -0.12758286 -0.158273 -0.26239702 0.053600892 0.30529112 -0.31415853 -0.284691 -0.102547385 -0.28673053 -0.024724536 -0.10612358 0.21105246 -0.102813296 0.09109949 -0.4128482 -0.01294583 -0.37684453 0.09664093 0.24742809 0.082747646 -0.18261975 -0.13618317 0.06789162 -0.18725605 -0.12215288 -0.031399544 0.005333691 0.100330845 0.0062237186 -0.10457446 -0.064229526 -0.08331323 0.24667053 -0.16227475 -0.1472633 -0.1154656 -0.2940912 0.32253167 -0.27115756 -0.016761627 0.0012042809 0.04606646 -0.05168068 -0.19281463 0.034290347 0.036131926 0.06725319 0.13293867 -0.17468333 0.09205166 0.13467634 -0.2953166 0.3201745 0.15282711 0.18276183 -0.16559233 0.14277597 0.008096978 0.080142 -0.157692 -0.053122003 0.053108774 0.25560942 0.17135939 -0.079398856 -0.08576021 0.03915412 -0.22195072 -0.030665271 -0.02864756 -0.03674207 0.11007086 0.08071353 -0.14343233 0.1347047 0.1340753 0.16332659 -0.078585796 0.076989375 -0.09822489 0.054841697 0.15541354 0.09164008 0.012844245 0.15831982 0.2913323 -0.013297248 0.116751775 0.032359295 -0.25466982 -0.22230257 0.17680733 0.09166569 0.14465913 -0.33081686 0.095588244 -0.18106608
and 0.12019164 -0.13779417 -0.12958188 0.28295776 0.29211262 -0.28352454 0.14466707 0.40358248 -0.24301483 0.13698444 -0.21597493 -0.14528988 -0.07253477 0.24686909 -0.0069821514 -0.13988647 -0.0005385236 0.103744164 0.024473807 -0.39661247 0.18884245 -0.19675918 0.025373489 0.013095041 -0.017178545 -0.052492205 -0.09658624 -0.26152003 -0.24456179 0.046841867 0.2775067 0.11688081 0.11691024 -0.080656245 -0.035079584 0.22312374 0.14271034 -0.17597604 -0.16786458 -0.3733965 -0.19380568 -0.061991643 -0.13903384 0.07781268 0.28674045 -0.026757931 -0.15668201 -0.16954108 0.20597753 0.14829652 0.1233004 -0.15353389 0.04427835 -0.08822478 0.05484075 -0.12591182 -0.029240742 -0.19748999 -0.34555736 0.061651602 -0.14697926 -0.013995065 0.026092507 -0.07082692 -0.3576168 0.008752205 -0.0754952 0.4705138 -0.25646916 0.24624713 -0.055734314 0.104962625 0.30078554 -0.09395513 0.21018422 0.053664636 0.2118108 -0.22182399 -0.33978525 -0.04306162 -0.09984027 -0.14693744 -0.24473599 0.425105 -0.30229843 -0.08855936 0.09040105 0.2961172 -0.014958343 0.06753182 0.22583854 0.22783309 0.14079505 0.32409653 0.42573243 0.2215952 -0.012906723 -0.16157168 0.24991433 0.12309555 -0.225334 0.38710707 0.20471047 -0.13059609 -0.19976786 -0.2902784 0.04207905 0.34837028 -0.34168768 -0.32351038 -0.11181818 -0.30957904 -0.027991293 -0.11175081 0.22904676 -0.093277894 0.11281502 -0.4784821 -0.01415112 -0.4207505 0.100235835 0.29305282 0.10595287 -0.21650174 -0.16084261 0.08520787 -0.22711058 -0.13470824 -0.02614426 0.0057306085 0.11610189 0.0035981128 -0.10645246 -0.07359341 -0.115250416 0.27906528 -0.18700986 -0.18759194 -0.13597971 -0.34082642 0.36215585 -0.29795563 -0.020463666 -0.008594342 0.04237178 -0.056029797 -0.22680156 0.033487644 0.041395824 0.06745105 0.13881534 -0.19785959 0.079026826 0.15542443 -0.35215074 0.367723 0.17351504 0.21328235 -0.17617464 0.16334955 0.03355166 0.09181581 -0.17455788 -0.06341112 0.04695871 0.2851613 0.18400463 -0.09733695 -0.11553351 0.05077044 -0.26138106 -0.020532586 -0.027950557 -0.05502116 0.120324366 0.09321413 -0.16727266 0.13992518 0.14637777 0.18683136 -0.090342194 0.08105344 -0.11260157 0.07801975 0.16608256 0.09940007 -0.002900673 0.17037761 0.3272312 -0.016332464 0.13282666 0.021212138 -0.29876322 -0.23934074 0.18994445 0.08657891 0.1494633 -0.36833 0.111872874 -0.19768143
url 0.11368256 -0.12508866 -0.1382297 0.30558014 0.27430284 -0.27028492 0.14513561 0.4039625 -0.239489 0.14605488 -0.19960593 -0.14466253 -0.045341462 0.24541573 -0.033501387 -0.15638791 0.01029046 0.1017404 0.020510036 -0.40308702 0.20503135 -0.18204531 -0.0034663535 0.027796743 -0.026926111 -0.07280137 -0.092897505 -0.25559753 -0.24542463 0.03655857 0.28676346 0.1098433 0.09960654 -0.05720932 -0.035184342 0.22957338 0.15413335 -0.1606863 -0.17327361 -0.353828 -0.16427442 -0.05716025 -0.13461988 0.06795732 0.29759523 -0.029320188 -0.15029933 -0.14566414 0.19572496 0.14972946 0.11193881 -0.1565892 0.036389776 -0.10225708 0.042829987 -0.11811616 -0.0073848264 -0.19479944 -0.34429756 0.03827821 -0.15158805 -0.021890728 0.03309255 -0.09109671 -0.35644078 0.015477313 -0.08702753 0.45762378 -0.23885779 0.23033212 -0.06077279 0.088384144 0.28670558 -0.08988115 0.2100818 0.06505039 0.21287057 -0.21121332 -0.3463834 -0.046657696 -0.124415465 -0.15369527 -0.2647341 0.43243662 -0.29947063 -0.08122391 0.09712064 0.2733724 0.0030415212 0.07569457 0.20142993 0.23342058 0.13803476 0.33332595 0.43165267 0.22615203 -0.001108324 -0.17313027 0.21755594 0.11034043 -0.22140446 0.39247987 0.20105141 -0.11267867 -0.2094846 -0.2746661 0.017262002 0.35243136 -0.33353263 -0.31188938 -0.10914063 -0.28750095 -0.023499953 -0.092338026 0.20979032 -0.08018854 0.12248186 -0.48938787 0.0055228374 -0.3962966 0.07846042 0.2904968 0.12680504 -0.22848701 -0.16564324 0.083502986 -0.25741568 -0.11795036 -0.0020211246 -0.00045991046 0.124555364 -3.7122758e-05 -0.096518025 -0.093531795 -0.10932818 0.25952396 -0.18895371 -0.20302461 -0.122685164 -0.3444896 0.35201514 -0.30415726 -0.020537015 -0.021872923 0.016976336 -0.062158696 -0.23602621 0.035292357 0.041791935 0.044397824 0.1383707 -0.16450544 0.061834887 0.16358864 -0.3529318 0.35207427 0.16254944 0.22030382 -0.17048773 0.16361988 0.06834497 0.1020868 -0.17846128 -0.0561533 0.017864957 0.26466 0.17581216 -0.07396445 -0.12194543 0.05737106 -0.26984072 -0.008960002 -0.006222781 -0.052606743 0.13035774 0.09456876 -0.16199613 0.12686874 0.15472569 0.20817178 -0.092014074 0.08117625 -0.09917069 0.10433536 0.1513457 0.11029965 -0.023331618 0.16250484 0.32223803 0.0010688978 0.15698506 -0.0071414593 -0.29297283 -0.22586852 0.19386034 0.0754161 0.120183654 -0.35774127 0.100354135 -0.20887823
it 0.10359443 -0.1182313 -0.11273179 0.2536161 0.2631878 -0.25676823 0.12632714 0.3581684 -0.22128232 0.11779756 -0.19706333 -0.13380685 -0.069980286 0.21464652 0.00092864945 -0.11629802 -0.01008512 0.09036691 0.025579195 -0.35841343 0.1636898 -0.1714121 0.029472148 0.019886637 -0.01326052 -0.037379455 -0.08773174 -0.23397966 -0.22004585 0.047778815 0.23764089 0.109794684 0.10863919 -0.08381019 -0.029543469 0.20587306 0.1296132 -0.16821145 -0.1586132 -0.3247961 -0.17326917 -0.057934813 -0.13725522 0.07057912 0.25325808 -0.025540084 -0.13648853 -0.16076903 0.18019383 0.12851305 0.121588014 -0.13486728 0.041183997 -0.07165407 0.0488196 -0.117093004 -0.03491661 -0.181647 -0.31428915 0.060008816 -0.13480397 -0.017830804 0.01801977 -0.063373476 -0.3130671 0.0036392638 -0.06805419 0.41827676 -0.23723209 0.2259534 -0.05622955 0.101046674 0.2647784 -0.088189304 0.17856583 0.05149449 0.18642744 -0.20919968 -0.29321778 -0.028449792 -0.08653999 -0.12703994 -0.20623885 0.36721307 -0.2767968 -0.07341097 0.080119476 0.27365345 -0.010765524 0.06281242 0.20997176 0.20586635 0.11695782 0.28629303 0.37779728 0.18953942 -0.016882373 -0.14205785 0.23159203 0.11657448 -0.20498258 0.34298676 0.190552 -0.1294932 -0.17703633 -0.26627958 0.037027463 0.3112961 -0.31333062 -0.29296625 -0.10585858 -0.28596386 -0.0338026 -0.105080746 0.20871177 -0.089471355 0.09988218 -0.43281707 -0.009673723 -0.3820956 0.098594815 0.26368088 0.0958733 -0.19168602 -0.1411257 0.0822499 -0.19664206 -0.118544385 -0.026351135 0.005838229 0.110820346 0.0032070377 -0.10698401 -0.06964959 -0.09782408 0.24135959 -0.15585427 -0.15903443 -0.12554218 -0.29885647 0.32882676 -0.26987606 -0.018550564 -0.01067971 0.043164473 -0.055137213 -0.20144255 0.036569353 0.03586611 0.06546112 0.1317664 -0.1820574 0.08459693 0.14482768 -0.31816152 0.33167565 0.1618729 0.19518958 -0.16390437 0.14317396 0.018739108 0.08866806 -0.1550041 -0.048314318 0.04629128 0.25881258 0.17385077 -0.0891957 -0.0922858 0.052876506 -0.23349856 -0.019741382 -0.037116293 -0.048216205 0.11462116 0.07720078 -0.15234767 0.13115412 0.13205074 0.16889046 -0.07838691 0.07374659 -0.10166559 0.06537287 0.14812969 0.08935705 -0.0034736826 0.16663514 0.28977606 -0.0066064475 0.11671306 0.02167351 -0.26544967 -0.23003812 0.17107113 0.093927324 0.15279439 -0.33542773 0.09696299 -0.17379631
hashtag 0.09773811 -0.12018946 -0.11183899 0.25730523 0.24768972 -0.2573061 0.13558805 0.36586264 -0.22025809 0.1199927 -0.18932997 -0.12903318 -0.063652106 0.21742001 -0.019279499 -0.12642702 0.0023942173 0.09779571 0.009380558 -0.36564052 0.164115 -0.17424698 0.012752747 0.016561488 -0.023351563 -0.054027766 -0.07937331 -0.24538867 -0.2265978 0.036173042 0.25717577 0.11199332 0.106530555 -0.06141937 -0.027312666 0.19818634 0.13693272 -0.16645244 -0.15199043 -0.3314329 -0.17205253 -0.05785902 -0.120631255 0.06351031 0.26989174 -0.034787796 -0.13166359 -0.15234645 0.1865602 0.13377102 0.11245035 -0.12934527 0.044386845 -0.08118145 0.052983932 -0.112039715 -0.0095870225 -0.17358372 -0.31145814 0.056054763 -0.12961161 -0.01815305 0.019916872 -0.07306824 -0.32025743 0.0020989063 -0.07980932 0.4154628 -0.23091438 0.22734931 -0.05701264 0.08892707 0.27503714 -0.08168402 0.1871278 0.05750692 0.19605277 -0.1978617 -0.30515563 -0.034731537 -0.085569814 -0.13363893 -0.22641535 0.3912169 -0.2731443 -0.078006536 0.07960256 0.26606205 -0.006635098 0.07170318 0.1975331 0.20184013 0.12595485 0.2886753 0.3894696 0.19213122 -0.006633182 -0.15474375 0.22528785 0.10043172 -0.19481425 0.35537553 0.18394619 -0.120323956 -0.1781987 -0.26510996 0.018437505 0.32681456 -0.305085 -0.28790697 -0.10319769 -0.2684676 -0.026737852 -0.098498076 0.19536981 -0.078570835 0.10582995 -0.42902696 -0.008579711 -0.38543707 0.08494854 0.2641441 0.09654678 -0.20122239 -0.14227709 0.07580715 -0.2161269 -0.11537233 -0.018653546 0.0065985997 0.10807374 0.0037133908 -0.10263537 -0.07300984 -0.09932705 0.2548395 -0.1623732 -0.17308885 -0.12120273 -0.31118667 0.32390377 -0.279757 -0.01576628 -0.017522495 0.030424856 -0.054526176 -0.20433739 0.029707512 0.03410701 0.052420024 0.1276236 -0.168779 0.065010265 0.14395262 -0.31803268 0.32155386 0.14516142 0.19048189 -0.16716947 0.14300123 0.04312845 0.08363842 -0.15535255 -0.05109799 0.044505015 0.25578132 0.17259099 -0.09024809 -0.11014254 0.041564316 -0.24196576 -0.023348322 -0.027701734 -0.0461564 0.113719456 0.08309101 -0.16176608 0.12331439 0.13400535 0.17863478 -0.07613617 0.07962838 -0.10055193 0.08049492 0.14184745 0.09710621 -0.0033504453 0.16136453 0.29132867 -0.0044135093 0.11748948 0.012956661 -0.25956744 -0.21945311 0.1772051 0.07409678 0.12501585 -0.32613304 0.09224571 -0.1829618
not 0.1060519 -0.1296791 -0.12537554 0.26749617 0.28217977 -0.26347595 0.1378697 0.37420824 -0.23905423 0.13680083 -0.20762855 -0.13180296 -0.075046174 0.2259385 -0.009263261 -0.12898906 -0.0011714125 0.08792719 0.021818636 -0.3825067 0.17580047 -0.18481228 0.041548193 0.01087797 -0.022391815 -0.049381938 -0.08738988 -0.24718511 -0.23697864 0.058786385 0.25528306 0.11281672 0.118417785 -0.08119982 -0.034108583 0.2175986 0.1278123 -0.17380507 -0.1613703 -0.34941724 -0.18102843 -0.061305154 -0.13942437 0.07357816 0.26999325 -0.02781505 -0.13937712 -0.17128251 0.19688702 0.13904826 0.12513857 -0.13677344 0.04624973 -0.07802495 0.045564722 -0.12494459 -0.035311688 -0.1919513 -0.33857423 0.05914433 -0.13894364 -0.021296455 0.018604156 -0.07173343 -0.340031 0.003475116 -0.066616215 0.44143164 -0.25025076 0.23709562 -0.05518792 0.102472655 0.27892834 -0.0930451 0.19278874 0.043228332 0.20837171 -0.2157129 -0.312418 -0.031589713 -0.085690685 -0.13294278 -0.2255782 0.3963065 -0.2921653 -0.08355151 0.07762526 0.28992578 -0.017541183 0.06691737 0.22396892 0.21325776 0.12601861 0.296789 0.39543673 0.20081525 -0.01194546 -0.15036441 0.24381971 0.12054509 -0.2151071 0.36893475 0.19259393 -0.12874308 -0.17473516 -0.27495664 0.047734782 0.32266077 -0.32705718 -0.30270782 -0.1060467 -0.30429497 -0.033257063 -0.11067963 0.21360825 -0.103046186 0.1036499 -0.45160288 -0.017849578 -0.39117137 0.093570694 0.28198975 0.09963662 -0.19351053 -0.14853768 0.072728135 -0.21257392 -0.12592748 -0.034175385 0.0019034514 0.1160882 0.0005271492 -0.11207124 -0.07346046 -0.10382532 0.25528964 -0.1709246 -0.1620405 -0.122427106 -0.32224983 0.33600911 -0.2896186 -0.029360041 -0.008790849 0.040370952 -0.05088615 -0.21417065 0.03828475 0.041247495 0.06977905 0.13459203 -0.19709803 0.09082974 0.14494884 -0.32754242 0.34500182 0.17211218 0.20079423 -0.17609124 0.15854262 0.01653006 0.08778504 -0.16100463 -0.059012912 0.042263806 0.2662819 0.17497629 -0.08517712 -0.10233701 0.048389968 -0.24187824 -0.022911342 -0.02809376 -0.050585464 0.11436345 0.07626539 -0.16718607 0.13518569 0.14095537 0.1688412 -0.084373385 0.07662799 -0.10375591 0.0674942 0.16355215 0.090532 -0.004112846 0.16730706 0.31330544 -0.0121586155 0.1229025 0.026243733 -0.27624533 -0.24262123 0.18639775 0.095179066 0.1556965 -0.35297287 0.098295055 -0.1930126
my 0.12631673 -0.13961 -0.13739711 0.29827973 0.30152866 -0.29102555 0.15289083 0.41791025 -0.25400534 0.1491118 -0.22981256 -0.15421142 -0.075328425 0.25628075 -0.0143500315 -0.14157261 -0.0005962027 0.103581525 0.025466241 -0.42423669 0.196398 -0.20519473 0.036669753 0.023948736 -0.01855639 -0.056395758 -0.09908922 -0.2820572 -0.26121062 0.05667416 0.29074216 0.12698554 0.13280089 -0.09257828 -0.037698597 0.23750024 0.1510579 -0.1931956 -0.18459259 -0.3915088 -0.21217583 -0.05885887 -0.15106697 0.079790086 0.30663234 -0.029575653 -0.16434272 -0.18574858 0.21161209 0.1616939 0.12955572 -0.15566395 0.04523742 -0.092152074 0.057973463 -0.14242269 -0.03362978 -0.20722716 -0.37427625 0.070857264 -0.15014945 -0.022860657 0.01949633 -0.07620387 -0.38106748 -0.003922256 -0.08460886 0.48890612 -0.26619348 0.26659212 -0.063018896 0.11112098 0.3182498 -0.09696079 0.21510378 0.056129243 0.22511464 -0.2429615 -0.3556301 -0.03900605 -0.09681835 -0.15845913 -0.25859907 0.4457926 -0.32960644 -0.09475051 0.09780498 0.3171049 -0.018706098 0.07164451 0.23696451 0.24513799 0.14011984 0.33202672 0.44474876 0.22677225 -0.020057859 -0.17386244 0.27139312 0.13467285 -0.24309485 0.3992987 0.21374597 -0.14576356 -0.20145899 -0.3095806 0.034684632 0.3659491 -0.3688259 -0.3383392 -0.1207923 -0.33367643 -0.035642482 -0.11663304 0.242103 -0.10540514 0.11821053 -0.50977343 -0.016079023 -0.4512423 0.10603847 0.30989844 0.11077276 -0.22257134 -0.15751138 0.09446218 -0.23406903 -0.1326515 -0.029032208 0.0022988059 0.12233899 0.011494574 -0.124101564 -0.07652698 -0.11370465 0.29088786 -0.18902414 -0.19886045 -0.13935484 -0.352902 0.37431332 -0.32329917 -0.020968921 -0.012499794 0.046163585 -0.05781594 -0.24328887 0.04877053 0.042134445 0.06767848 0.15401064 -0.20838226 0.08925151 0.17238006 -0.37587845 0.38061675 0.18766339 0.22544122 -0.18870565 0.17297563 0.031667788 0.09738462 -0.18079756 -0.060426652 0.05333613 0.29643434 0.20107408 -0.10324791 -0.122444205 0.058850218 -0.2725619 -0.018822027 -0.04083026 -0.0555042 0.12437319 0.09247017 -0.18146823 0.14983721 0.15795153 0.20015964 -0.0968289 0.08483937 -0.12534827 0.08114728 0.17032745 0.109951146 -0.0061397096 0.18777099 0.34894735 -0.012140854 0.13725345 0.031701162 -0.30698577 -0.25823766 0.20696808 0.10032449 0.16984487 -0.40131852 0.112669386 -0.21158053
of 0.104867406 -0.1180851 -0.11596414 0.26731348 0.25717714 -0.25400978 0.13732952 0.36660293 -0.2175086 0.13255447 -0.19404897 -0.138915 -0.057004966 0.21664077 -0.015238288 -0.14062545 6.993457e-05 0.08719548 0.02449527 -0.37064633 0.18329263 -0.18175782 0.014605558 0.015757369 -0.022630055 -0.050258864 -0.08544383 -0.24219348 -0.23140603 0.032914665 0.2583525 0.10359695 0.109429985 -0.06875757 -0.02876882 0.20130187 0.13742574 -0.15426321 -0.16455348 -0.33130127 -0.17461167 -0.057372227 -0.12652828 0.069580376 0.2635107 -0.0339465 -0.13685402 -0.1479701 0.18217939 0.13949165 0.11087375 -0.13621011 0.03946274 -0.07748534 0.046205267 -0.11534519 -0.013364594 -0.18599625 -0.32671687 0.05391826 -0.12796304 -0.02089298 0.025821358 -0.074227944 -0.33058834 0.0036196609 -0.07969874 0.4273908 -0.23021032 0.21561784 -0.056218475 0.09191141 0.27691507 -0.0836367 0.19210505 0.05340449 0.18995233 -0.1963245 -0.30791157 -0.039059673 -0.098462254 -0.13659309 -0.23142377 0.39208108 -0.28258538 -0.081591606 0.086553946 0.2653169 -0.0033197696 0.06650258 0.19592032 0.21264485 0.13167746 0.29275173 0.39419898 0.20242454 -0.015647676 -0.15000905 0.2148467 0.10467201 -0.20765784 0.34437913 0.19123317 -0.11459896 -0.18305686 -0.2721762 0.020609422 0.31620458 -0.30337977 -0.29507133 -0.09901881 -0.28287485 -0.021420259 -0.09471254 0.20448515 -0.08466172 0.10253564 -0.44067848 -0.0011449136 -0.37899467 0.08801994 0.27007246 0.10602902 -0.20617071 -0.13893889 0.07595367 -0.21839803 -0.10924956 -0.019585527 0.004882332 0.10624787 0.008761229 -0.09565648 -0.0738917 -0.10323388 0.25568864 -0.16500439 -0.17896366 -0.122653484 -0.30816734 0.3297118 -0.27834752 -0.01529603 -0.014743838 0.041498963 -0.05092043 -0.21224342 0.039837927 0.036607783 0.047829576 0.13586265 -0.16292274 0.076169334 0.14430764 -0.3316713 0.33100584 0.14564344 0.20075788 -0.1625937 0.15307224 0.042811103 0.08830723 -0.15929805 -0.0563309 0.04049944 0.24735269 0.16459352 -0.084833235 -0.103367575 0.050599832 -0.2416532 -0.013933612 -0.026066436 -0.045353364 0.118738525 0.089314975 -0.1571807 0.11871614 0.1392736 0.18101625 -0.077677555 0.07175168 -0.10607944 0.07248272 0.14141195 0.09762819 -0.013646388 0.14905095 0.30183375 -0.00016928339 0.13035874 0.01410207 -0.27352527 -0.22336993 0.18084465 0.07301812 0.12527275 -0.33532825 0.09818644 -0.19305463
me 0.11390702 -0.13669394 -0.12297989 0.2681659 0.277601 -0.2671855 0.12840909 0.3848506 -0.22765313 0.12639764 -0.19640517 -0.13065045 -0.082672715 0.22439797 -0.004210119 -0.1229806 -0.004919122 0.08972451 0.023571879 -0.3857196 0.16528668 -0.185319 0.0337027 0.0113209225 -0.015802294 -0.047610108 -0.085929744 -0.25099483 -0.23846112 0.05755004 0.25841373 0.11039463 0.12108205 -0.08463078 -0.03151077 0.21143968 0.1271446 -0.18323694 -0.16527565 -0.34981373 -0.18661118 -0.066500306 -0.13868818 0.07396437 0.27562612 -0.036244817 -0.14308546 -0.16930862 0.1947782 0.1473761 0.12032238 -0.14436808 0.04803324 -0.07316803 0.05342115 -0.12917241 -0.027653107 -0.18722752 -0.33997437 0.06705628 -0.14505227 -0.012826804 0.01928417 -0.06969577 -0.34120157 0.00047716277 -0.06735252 0.45233938 -0.2513622 0.23717739 -0.052547053 0.10381207 0.28831923 -0.09622301 0.19695605 0.049494103 0.20312734 -0.21637312 -0.31600884 -0.040373467 -0.08517343 -0.14353867 -0.22970338 0.40490568 -0.2901427 -0.07411031 0.08278992 0.28885344 -0.015331452 0.07275168 0.21231198 0.22136584 0.12837636 0.30296943 0.40133938 0.21347822 -0.012133751 -0.15462875 0.2506453 0.11217624 -0.2144904 0.36723626 0.19413234 -0.12844892 -0.19068359 -0.28097954 0.040982727 0.3387221 -0.33989087 -0.31437868 -0.11197912 -0.29219753 -0.04185937 -0.107488625 0.21537806 -0.09471124 0.099331975 -0.46065584 -0.010782743 -0.4001018 0.09183256 0.27618453 0.102511205 -0.19815856 -0.13974178 0.07999867 -0.20931348 -0.12873556 -0.03080039 0.011298477 0.1160519 0.0003960549 -0.10921486 -0.07808015 -0.10348984 0.26481184 -0.17580381 -0.17009178 -0.12603545 -0.3306424 0.33545098 -0.29653394 -0.02507732 -0.0049862303 0.049807977 -0.05132056 -0.21554337 0.038209207 0.03224688 0.06468697 0.13894631 -0.18081224 0.08127641 0.14365344 -0.3325306 0.3486192 0.16069652 0.19812323 -0.17891738 0.15057816 0.018551353 0.09069759 -0.16658658 -0.053298336 0.04748933 0.27290756 0.1807263 -0.092212886 -0.10111661 0.05026468 -0.244093 -0.021909287 -0.036738474 -0.04320885 0.12515558 0.08100107 -0.17090371 0.13239339 0.15078366 0.17966378 -0.07293449 0.07401698 -0.10205163 0.060325924 0.16534539 0.09660781 4.058195e-05 0.1636794 0.31729707 -0.009783938 0.11962545 0.018296896 -0.2737063 -0.24360052 0.1833364 0.095264785 0.14603217 -0.36444107 0.10893851 -0.1967758
is 0.1028955 -0.1205566 -0.13345623 0.2642322 0.24439748 -0.24610557 0.1257904 0.36702493 -0.221431 0.12816137 -0.18094812 -0.13718705 -0.043706205 0.22357601 -0.032160256 -0.13846555 0.010273221 0.08939203 0.022484403 -0.36403167 0.18944186 -0.15910716 0.0043213814 0.027685821 -0.02661575 -0.0634923 -0.082173154 -0.22857533 -0.21470909 0.0412893 0.2566022 0.10788994 0.09316287 -0.061943293 -0.035045356 0.21119544 0.13535191 -0.16116713 -0.15540096 -0.31817976 -0.14039274 -0.053801145 -0.10902411 0.053077493 0.27135596 -0.012170236 -0.12511317 -0.13456585 0.17596067 0.12981193 0.09129603 -0.1421363 0.032290563 -0.089070015 0.04124301 -0.10869862 -0.01346037 -0.17208806 -0.29867446 0.03725597 -0.1341522 -0.02297651 0.027054008 -0.0753613 -0.31843284 0.015132983 -0.074453644 0.41566518 -0.21974963 0.21471854 -0.051287394 0.081272654 0.26278293 -0.085034765 0.19087699 0.05578938 0.19240862 -0.20040238 -0.3081131 -0.037292257 -0.10923987 -0.13790104 -0.23589508 0.39100385 -0.2583158 -0.074958466 0.08144411 0.25320986 0.007765573 0.062492743 0.19069536 0.20681885 0.12407078 0.29470375 0.37537247 0.21128942 -0.006290864 -0.15668498 0.2040003 0.10561998 -0.19431666 0.34944063 0.17844723 -0.107418865 -0.18946147 -0.248269 0.025755748 0.3125843 -0.3070628 -0.29042503 -0.1004743 -0.25726095 -0.03023155 -0.08262027 0.190579 -0.073496394 0.098796204 -0.44069695 0.00705209 -0.3549635 0.07691304 0.26942936 0.11549739 -0.20783788 -0.15037729 0.07002637 -0.22298028 -0.107080184 -0.00960834 0.0013092776 0.11079507 0.006955003 -0.09370209 -0.08517494 -0.094785765 0.22738753 -0.17068927 -0.17563316 -0.10947381 -0.31030574 0.3127804 -0.27518255 -0.020874817 -0.016987363 0.024945075 -0.04839444 -0.21421273 0.03365707 0.05346283 0.041362125 0.12215774 -0.1477696 0.05935107 0.13402097 -0.30281413 0.32461172 0.15277687 0.19740301 -0.15161242 0.14730929 0.051865812 0.095086105 -0.15528867 -0.056776162 0.012121897 0.23989056 0.15120505 -0.06579272 -0.10532382 0.05136253 -0.24694332 -0.016478576 -0.002983266 -0.03984791 0.113569245 0.08584118 -0.14189966 0.10969516 0.13383003 0.18080772 -0.078995354 0.07870296 -0.09336597 0.09212861 0.14001472 0.093479596 -0.02299189 0.14692089 0.29656428 0.00063857366 0.13500121 0.0033151396 -0.25331163 -0.2052093 0.17177851 0.070982344 0.11643074 -0.32833248 0.089446016 -0.19654638
s 0.10587582 -0.1094564 -0.11420976 0.24800031 0.25113276 -0.24512611 0.13220295 0.35294664 -0.20857655 0.12643309 -0.18577749 -0.13226862 -0.06309851 0.2105918 -0.007436438 -0.1195532 -0.0027043617 0.09471413 0.018931083 -0.35350555 0.16337587 -0.17680901 0.021307759 0.018387226 -0.020916753 -0.044293895 -0.078021854 -0.24031137 -0.22351684 0.039416414 0.23555067 0.10341317 0.11316125 -0.07721839 -0.032703523 0.20625952 0.13118874 -0.15340333 -0.15892588 -0.32247546 -0.17655784 -0.048721008 -0.12493016 0.066470854 0.2585044 -0.031572144 -0.13619763 -0.1492009 0.18207332 0.13466834 0.11168746 -0.13049234 0.03809098 -0.08120261 0.04848691 -0.12406991 -0.025995107 -0.17618822 -0.305579 0.048213296 -0.1316035 -0.020043908 0.014532845 -0.06679603 -0.3107285 0.0018561216 -0.07039889 0.41657174 -0.23089421 0.21419665 -0.046049535 0.09593306 0.26318252 -0.07713452 0.18440476 0.05193548 0.19089493 -0.20295076 -0.29030827 -0.029330265 -0.08841022 -0.13386296 -0.21115424 0.366657 -0.2693779 -0.08305095 0.07888297 0.2640272 -0.008076059 0.06679902 0.19317241 0.20477976 0.12427793 0.2839076 0.37999472 0.1951267 -0.010055454 -0.13776635 0.2193208 0.10610778 -0.20004097 0.33511212 0.18651111 -0.12177617 -0.17356184 -0.26344135 0.039450914 0.31053492 -0.30633244 -0.28741717 -0.100696504 -0.277964 -0.03390809 -0.10330406 0.20138545 -0.08056015 0.09552362 -0.41791525 -0.010739507 -0.37140843 0.08441215 0.25992164 0.1011914 -0.19324854 -0.1329615 0.08201566 -0.20178689 -0.11514511 -0.030610427 0.0048359153 0.100765035 0.0058944165 -0.090785794 -0.06988586 -0.10078239 0.24231863 -0.16480511 -0.1687242 -0.12624675 -0.29785833 0.31744596 -0.26574066 -0.020131929 -0.0037149072 0.04367706 -0.0538274 -0.19242989 0.029841471 0.034503177 0.05948821 0.12537462 -0.1764552 0.074304305 0.14086793 -0.3163521 0.31636032 0.14367357 0.1907939 -0.16117013 0.13979411 0.034316324 0.08561239 -0.15070765 -0.04964633 0.03910516 0.25361505 0.16059902 -0.08424587 -0.10185981 0.046633832 -0.23418638 -0.010500628 -0.02444312 -0.05142637 0.113201894 0.08582606 -0.15614484 0.12304676 0.12392415 0.17315839 -0.074849844 0.07073415 -0.10653221 0.06605398 0.1414563 0.0880034 0.0042452808 0.15265152 0.28373125 -0.013108812 0.11575476 0.02013195 -0.26112366 -0.21662708 0.17611237 0.08185239 0.14058277 -0.32289508 0.09231911 -0.17938505
questionMark 0.10477256 -0.1310027 -0.11813766 0.2641874 0.2732611 -0.2591326 0.13129514 0.37002522 -0.22365272 0.12827426 -0.20332001 -0.13519245 -0.0815594 0.22484499 -0.009089894 -0.12981223 -0.012985268 0.09892261 0.020734128 -0.3742895 0.1721383 -0.18742974 0.035991196 0.014653937 -0.013238349 -0.04640841 -0.07952992 -0.25883842 -0.23648794 0.053025264 0.250825 0.11553795 0.12208013 -0.081892855 -0.02900866 0.21259817 0.13227677 -0.17256634 -0.15866037 -0.3540578 -0.18825963 -0.057095382 -0.1362075 0.07304241 0.26726854 -0.029402625 -0.14722158 -0.17381535 0.19631821 0.14057967 0.12772657 -0.13765368 0.05228892 -0.08274383 0.049336802 -0.1271916 -0.03376769 -0.18634279 -0.3377755 0.063606255 -0.13921 -0.015193733 0.019903455 -0.0728643 -0.33528888 -0.004068666 -0.07146153 0.44271377 -0.25087366 0.24189743 -0.050499696 0.10484855 0.2785875 -0.08705324 0.18876263 0.054351274 0.2075911 -0.2151456 -0.31012982 -0.032774564 -0.08387427 -0.13942344 -0.2167622 0.38945946 -0.29665813 -0.082233414 0.085540265 0.2786639 -0.017405324 0.06994103 0.2147578 0.2122499 0.12232157 0.30110553 0.39579064 0.2084177 -0.022665013 -0.15782729 0.24006534 0.12304372 -0.21716163 0.36684918 0.18676381 -0.13701837 -0.1818932 -0.27991512 0.0361506 0.32328385 -0.33276966 -0.30281365 -0.100857906 -0.3041078 -0.038043614 -0.11113507 0.22018518 -0.10134133 0.10215563 -0.45066896 -0.0121675255 -0.3957592 0.104144625 0.2753861 0.102373004 -0.19284949 -0.14898452 0.08168685 -0.20999382 -0.12774885 -0.029449979 0.0018283199 0.10666715 0.0015034272 -0.105726734 -0.062460113 -0.09862998 0.2625046 -0.17245962 -0.1669157 -0.13157277 -0.31579736 0.33517554 -0.2863141 -0.01897679 -0.005400084 0.04076705 -0.048192844 -0.20143403 0.0331157 0.03460758 0.06855422 0.1350146 -0.18494752 0.08945804 0.15437496 -0.32260293 0.33645323 0.16135043 0.19387658 -0.17964035 0.14568464 0.021494364 0.08826875 -0.16814336 -0.05297776 0.051484328 0.27017522 0.18035102 -0.09192411 -0.10161558 0.05334671 -0.23975559 -0.028698256 -0.030136278 -0.045153476 0.111116804 0.08797308 -0.1645402 0.13883516 0.1334484 0.16965277 -0.08468025 0.07300295 -0.105827466 0.06368223 0.16046806 0.0998176 0.0027145692 0.1695755 0.30398056 -0.014904406 0.11969224 0.025545511 -0.27713093 -0.23609817 0.1852037 0.09352065 0.14870681 -0.3480767 0.09805676 -0.19070534
in 0.103810206 -0.12492844 -0.123654656 0.26212806 0.2713534 -0.27014107 0.13380958 0.37267005 -0.22093573 0.13384065 -0.20516154 -0.1344824 -0.068983026 0.22654246 -0.0114528285 -0.14165881 -0.0061113844 0.0901471 0.02332139 -0.37296414 0.18293078 -0.18156056 0.024603106 0.013886501 -0.014215393 -0.045701817 -0.0844447 -0.24273904 -0.23981243 0.04370313 0.2644609 0.10671662 0.104360946 -0.071405195 -0.03332782 0.20968723 0.13379431 -0.15845405 -0.16252992 -0.34277067 -0.17968595 -0.049434282 -0.13674723 0.06426146 0.27164692 -0.031384747 -0.14522648 -0.15469219 0.18786788 0.14370342 0.11940098 -0.1412844 0.041896883 -0.08394822 0.054965008 -0.11553381 -0.023305207 -0.18285066 -0.33372656 0.050223023 -0.13925233 -0.021703783 0.019207567 -0.07654689 -0.3354474 0.006409116 -0.08127516 0.438686 -0.23339188 0.23152216 -0.060519442 0.10334122 0.28880808 -0.08491407 0.19398336 0.047824416 0.19575226 -0.21064062 -0.31358778 -0.038262617 -0.1014472 -0.13587485 -0.24011123 0.40277925 -0.28208822 -0.08718399 0.088851914 0.28114334 -0.012491131 0.06461526 0.21192077 0.21812935 0.13809416 0.29473075 0.3993253 0.21076745 -0.010571545 -0.15211014 0.22483501 0.110392235 -0.21790452 0.36614293 0.19112204 -0.12601642 -0.18119073 -0.2777277 0.028833956 0.33075738 -0.31701168 -0.30497387 -0.10494548 -0.29214835 -0.022140002 -0.098894544 0.21065187 -0.091198385 0.10638393 -0.44946286 -0.009666363 -0.397146 0.09027422 0.27948612 0.10168928 -0.2094669 -0.1432819 0.07540375 -0.21349803 -0.11968647 -0.026105095 -0.004251799 0.11081344 0.008566043 -0.10362752 -0.07595562 -0.10748231 0.26407233 -0.17358707 -0.17669411 -0.12866965 -0.32221842 0.34009975 -0.28437784 -0.019781224 -0.020756798 0.03510319 -0.057893332 -0.21492115 0.03676162 0.038261604 0.060449313 0.13682587 -0.17506586 0.07279092 0.15243469 -0.34070957 0.33607122 0.16496968 0.19877718 -0.17380472 0.15970501 0.042610597 0.09271605 -0.16050743 -0.060542032 0.03606455 0.2541029 0.17085046 -0.09243412 -0.112663195 0.054661486 -0.24092747 -0.01945356 -0.026568528 -0.044184618 0.11797236 0.08590776 -0.15818764 0.12770407 0.13757634 0.17796227 -0.077098176 0.08063754 -0.1118105 0.07341199 0.14852779 0.0981982 -0.013654154 0.16639248 0.30486855 -0.0051685595 0.13391684 0.016631396 -0.27496457 -0.22928731 0.17727688 0.083278984 0.13736641 -0.35464615 0.10784128 -0.19693749
for 0.12342632 -0.1408008 -0.13746135 0.29588076 0.3045742 -0.29960254 0.15178509 0.42378983 -0.24770519 0.15225452 -0.2172514 -0.14629921 -0.07951432 0.2482636 -0.020282505 -0.1533978 0.0008197776 0.108346894 0.018726636 -0.4214595 0.20020315 -0.20761386 0.0257937 0.01230973 -0.022988943 -0.06045324 -0.09213075 -0.27986798 -0.26090133 0.04782689 0.2944635 0.11911577 0.12134411 -0.07918416 -0.029958358 0.23553412 0.15012099 -0.18929587 -0.17801373 -0.39111567 -0.19892515 -0.05903635 -0.14539027 0.07382979 0.30864447 -0.030580647 -0.16534556 -0.1670029 0.21135044 0.16345961 0.13098499 -0.155103 0.049004357 -0.08930137 0.050996903 -0.1331552 -0.018409682 -0.20795031 -0.36785993 0.061851062 -0.15337086 -0.021714225 0.023843383 -0.08092418 -0.36723623 0.01054492 -0.090857126 0.49206704 -0.27142724 0.25609192 -0.069615334 0.11208466 0.31505117 -0.09942041 0.22157599 0.054049022 0.22403206 -0.2368967 -0.35602576 -0.04829871 -0.112635136 -0.15311448 -0.26877972 0.45233166 -0.32671285 -0.09433041 0.09647175 0.30095536 -0.016040023 0.07300879 0.22683002 0.24273339 0.14207527 0.34068972 0.45142823 0.22887856 -0.0149585735 -0.17695689 0.25180858 0.12320035 -0.23947208 0.4039911 0.2084881 -0.14247876 -0.20344098 -0.31181487 0.0313688 0.37721178 -0.35277984 -0.3404333 -0.11531067 -0.32968077 -0.032215815 -0.11048092 0.23713416 -0.09012162 0.11934063 -0.49987888 -0.00059001835 -0.44525912 0.09758547 0.3040113 0.11694791 -0.23374522 -0.16533369 0.078506716 -0.24379632 -0.13540676 -0.019677995 -0.0064141867 0.122090876 0.008336616 -0.10831828 -0.08050831 -0.115330175 0.28818342 -0.19438638 -0.20248626 -0.14488672 -0.35536456 0.38010693 -0.31814137 -0.032166637 -0.013281555 0.038540583 -0.0643565 -0.24263093 0.043457255 0.038956493 0.065456375 0.1530777 -0.19853364 0.088070564 0.17529859 -0.36968789 0.3832768 0.18227732 0.22198449 -0.18553492 0.17701758 0.038511522 0.098581225 -0.18261954 -0.065358065 0.03837537 0.29349634 0.19503796 -0.10020998 -0.117322125 0.049838364 -0.27212003 -0.028893517 -0.022404118 -0.04756817 0.13026339 0.09378697 -0.17595685 0.13524531 0.15351672 0.20151928 -0.0998276 0.092103265 -0.11382646 0.086896434 0.1757561 0.115717016 -0.0049261376 0.18447264 0.3489908 -0.007334963 0.14852947 0.020567633 -0.31325597 -0.24726659 0.21343592 0.10001487 0.15086544 -0.39353964 0.115429245 -0.21447669
that 0.101055935 -0.12546797 -0.11313974 0.26729104 0.26982903 -0.26251203 0.13403758 0.3698963 -0.22449382 0.1237774 -0.19994237 -0.1328044 -0.06797329 0.21757452 -0.0106227165 -0.12830159 -0.0030070601 0.08901446 0.023141898 -0.372837 0.16651961 -0.17680499 0.0275999 0.013728398 -0.012193568 -0.044580486 -0.08977633 -0.2473718 -0.23602104 0.044648085 0.24939537 0.11102174 0.108568184 -0.07654245 -0.036105804 0.21376152 0.12824859 -0.17257835 -0.15673864 -0.34852412 -0.18213512 -0.05728171 -0.13959399 0.06911763 0.2731886 -0.028849676 -0.13998912 -0.16713887 0.19008368 0.1364763 0.11568888 -0.13986206 0.03993356 -0.08252324 0.048627097 -0.12688237 -0.032471225 -0.1915159 -0.3248402 0.059362184 -0.13547511 -0.015712488 0.02371464 -0.07126545 -0.3347897 0.003521999 -0.07722365 0.43963754 -0.23477511 0.2307025 -0.051230993 0.104686014 0.27978978 -0.08563505 0.19520256 0.051649764 0.1944976 -0.22015683 -0.3105542 -0.035936892 -0.08327147 -0.14052418 -0.22720724 0.3969881 -0.28701037 -0.0859612 0.08358622 0.27665576 -0.018079314 0.062084574 0.21302196 0.21900572 0.1283503 0.30289492 0.39851707 0.20618647 -0.01641373 -0.14602625 0.22890009 0.111893795 -0.20766309 0.36581513 0.18943459 -0.1320325 -0.17651483 -0.27537632 0.035027817 0.32879487 -0.31909588 -0.29866865 -0.10681299 -0.28843287 -0.02611222 -0.104940906 0.21667789 -0.096204564 0.10031469 -0.44546384 -0.00839563 -0.38746518 0.0982056 0.27446026 0.10499455 -0.19313338 -0.1435809 0.075390086 -0.20866941 -0.117300324 -0.030950712 0.004411901 0.11187761 0.0011374091 -0.09886573 -0.06873336 -0.09927918 0.26160112 -0.16882691 -0.17031707 -0.13221982 -0.3096003 0.33198062 -0.2794702 -0.020864531 -0.010514194 0.035738777 -0.04849729 -0.2108891 0.039515115 0.037568364 0.059874035 0.13456988 -0.19172221 0.07845009 0.14183572 -0.32706282 0.33957642 0.16086745 0.19991073 -0.17293744 0.14767727 0.028626101 0.08737334 -0.1604763 -0.051684424 0.04281461 0.2671432 0.17748949 -0.087942205 -0.10640048 0.054334678 -0.24198537 -0.021294337 -0.030181052 -0.05078195 0.11862801 0.082799055 -0.156254 0.12834467 0.13810498 0.17766657 -0.08396211 0.07409796 -0.11213112 0.06871942 0.1548005 0.093610235 -0.0010480222 0.16398028 0.30627754 -0.010076039 0.1260655 0.02028946 -0.27627492 -0.23327246 0.17606191 0.08469239 0.14991987 -0.3452779 0.09770301 -0.19434239
haha 0.102110095 -0.12140038 -0.11996291 0.2593018 0.27090788 -0.2569872 0.12438309 0.36833978 -0.22507703 0.12976417 -0.19902214 -0.13227984 -0.07089178 0.21776287 -0.0034120707 -0.12790978 -0.0022245909 0.08524722 0.02082031 -0.3717037 0.1644504 -0.17793006 0.032681957 0.015204867 -0.018666193 -0.049830884 -0.08859479 -0.2500088 -0.23685853 0.046120983 0.25461924 0.109158635 0.10833877 -0.08536774 -0.031146891 0.20610532 0.12812656 -0.17405912 -0.15368931 -0.3433527 -0.1856724 -0.050492145 -0.14043576 0.073614456 0.2649049 -0.017411228 -0.13945034 -0.16014826 0.19004159 0.13791582 0.11968883 -0.13810106 0.046936095 -0.07576107 0.052921128 -0.12739027 -0.032275744 -0.17919359 -0.3293357 0.059818618 -0.14237347 -0.01238064 0.012100983 -0.065687865 -0.3178675 0.0034731468 -0.07638037 0.42591012 -0.23819813 0.22430347 -0.049831316 0.10009006 0.27651766 -0.08971297 0.18515518 0.04901964 0.19692959 -0.21725853 -0.30189356 -0.03678448 -0.089220755 -0.13387288 -0.2226363 0.3825348 -0.28693157 -0.08037005 0.07974565 0.27904016 -0.012238651 0.068853274 0.21673723 0.21379404 0.119157806 0.3013134 0.38981125 0.20623697 -0.018062426 -0.14587949 0.23725218 0.108829126 -0.21124344 0.35848454 0.19301932 -0.13274275 -0.1733584 -0.27030793 0.04272959 0.31956756 -0.32636452 -0.2921123 -0.10970999 -0.2961534 -0.03258632 -0.1140637 0.20980735 -0.09256137 0.095058754 -0.44056317 -0.010971683 -0.3891098 0.09663051 0.26458225 0.10539284 -0.19743937 -0.13739392 0.07533702 -0.20041844 -0.124673225 -0.032436624 0.0015331416 0.10552771 0.009283403 -0.09968864 -0.06602647 -0.10192337 0.25365186 -0.17112821 -0.16711168 -0.12947492 -0.31298938 0.33341715 -0.28180158 -0.022080312 -0.0051413625 0.03603051 -0.051503327 -0.20501906 0.027319634 0.029829886 0.0656547 0.13555375 -0.18867944 0.077286124 0.14521931 -0.32187527 0.33002862 0.16456695 0.19712204 -0.1731077 0.14810666 0.028688446 0.087820694 -0.15796202 -0.05860713 0.04973448 0.26699674 0.17669795 -0.08963886 -0.10194231 0.04855745 -0.24611394 -0.017569177 -0.030675046 -0.04581825 0.11761983 0.07663839 -0.15366015 0.12472469 0.13211022 0.17763442 -0.08011327 0.07308381 -0.10699644 0.061626773 0.15031724 0.08973987 0.008741273 0.16951677 0.3017837 -0.012496341 0.116947174 0.027394181 -0.2732819 -0.22556375 0.18570843 0.09576695 0.15026271 -0.34017324 0.101955004 -0.19078362
on 0.10833651 -0.1213069 -0.11516022 0.26867938 0.27748805 -0.27054933 0.12811697 0.37808847 -0.23266636 0.13451211 -0.20639239 -0.13768692 -0.064185135 0.23627372 -0.0051594595 -0.13594948 -0.0054858513 0.095506325 0.020264786 -0.3876926 0.18110892 -0.18990137 0.030696722 0.015496975 -0.022370161 -0.048160113 -0.091063954 -0.24916254 -0.24241038 0.043074742 0.26261476 0.11330157 0.116328195 -0.07523651 -0.033418458 0.21058111 0.13629666 -0.16747569 -0.16589154 -0.3521162 -0.18484142 -0.052500412 -0.13999936 0.07122037 0.2740639 -0.025294246 -0.14282858 -0.15683694 0.18502875 0.14646226 0.11900873 -0.14237192 0.035294197 -0.088345125 0.055620782 -0.12348273 -0.03073189 -0.1859043 -0.3403601 0.05189015 -0.13620448 -0.01692821 0.022547958 -0.06661101 -0.33583257 -0.00083010475 -0.07357855 0.44541287 -0.24083042 0.23836394 -0.061480068 0.100534976 0.2868415 -0.08576282 0.19550492 0.059677143 0.19994831 -0.22294614 -0.32425898 -0.04072946 -0.085913785 -0.14231406 -0.2373084 0.4073386 -0.29652786 -0.08157668 0.0879644 0.27951774 -0.011656025 0.066820234 0.2152398 0.21648717 0.12641194 0.31153652 0.40101448 0.21475217 -0.019607468 -0.14854066 0.23627886 0.11193601 -0.2193565 0.36535892 0.19359055 -0.12763143 -0.1928186 -0.28489748 0.032674026 0.339213 -0.32325876 -0.3064704 -0.11172634 -0.29582018 -0.037956346 -0.109101936 0.21911992 -0.08958293 0.10056609 -0.4611688 -0.013218265 -0.39615417 0.099737845 0.27939832 0.11188729 -0.2075788 -0.14779013 0.08117512 -0.2191648 -0.13142914 -0.021791803 0.0019443394 0.108615786 0.010414203 -0.10804917 -0.07088817 -0.10476486 0.26087302 -0.17889722 -0.17988452 -0.13320696 -0.32145435 0.3413968 -0.28866225 -0.021498926 -0.014851659 0.0446027 -0.049735427 -0.21747363 0.037193473 0.039317496 0.0643087 0.14328037 -0.18754907 0.07959268 0.14811897 -0.34007674 0.3426657 0.1630606 0.19433086 -0.17255339 0.1576858 0.03477434 0.09153587 -0.1631689 -0.06386429 0.05057388 0.2662066 0.18219128 -0.087870166 -0.107787915 0.05278514 -0.24958673 -0.027977554 -0.03256513 -0.051042072 0.11214593 0.092003375 -0.16167408 0.12897493 0.14539835 0.180821 -0.08275669 0.0801202 -0.11367606 0.068302214 0.157434 0.09196096 -5.1034687e-05 0.16839035 0.30755085 -0.005184739 0.13175562 0.015079393 -0.28263506 -0.23982163 0.18903145 0.09154373 0.14680798 -0.35562247 0.10085716 -0.19777612
this 0.10868559 -0.12755653 -0.15506294 0.29141876 0.24214107 -0.250926 0.14009458 0.38225016 -0.24453418 0.14498305 -0.1725232 -0.13272001 -0.038590975 0.2321925 -0.056773514 -0.14734773 0.03170924 0.084025376 0.021653248 -0.3812737 0.20561075 -0.15882617 -0.009012384 0.033751253 -0.030960584 -0.07679986 -0.09059707 -0.22130495 -0.20964786 0.0447659 0.28916824 0.12002821 0.08083351 -0.051148854 -0.029975008 0.21885136 0.14900607 -0.15275164 -0.15940472 -0.32372546 -0.12348357 -0.05849031 -0.105262056 0.0551144 0.2800174 -0.008262147 -0.11836655 -0.11849739 0.17873429 0.12801391 0.07688191 -0.14606947 0.033046275 -0.10416738 0.034368064 -0.10458307 -0.0065636695 -0.16784705 -0.2977844 0.04290536 -0.14445052 -0.032059815 0.036324587 -0.086438835 -0.32730883 0.009143369 -0.07862356 0.43005407 -0.2192367 0.21202537 -0.06353354 0.07006283 0.2589353 -0.08588782 0.19922346 0.05087588 0.19940622 -0.2037738 -0.32262066 -0.04888625 -0.1253881 -0.14587149 -0.26327386 0.40529084 -0.27169845 -0.078985974 0.08590662 0.24368364 0.021477148 0.058657188 0.19161315 0.216173 0.12888545 0.32292926 0.38736308 0.21895482 0.00799814 -0.16589442 0.20492217 0.09800366 -0.19854315 0.375549 0.17637657 -0.1061262 -0.19658937 -0.24262927 0.0169522 0.33178133 -0.32337046 -0.29983622 -0.107888274 -0.25017574 -0.030009001 -0.07061589 0.191041 -0.062327165 0.109676 -0.46617243 0.009851588 -0.35865998 0.06240848 0.27480105 0.13406806 -0.22093695 -0.16543652 0.071615145 -0.2599052 -0.11141877 0.012961461 0.0030123778 0.11096445 0.0011741215 -0.09307973 -0.10040256 -0.099779606 0.23145327 -0.18039973 -0.1804199 -0.094195925 -0.3295263 0.32665852 -0.29438338 -0.018270625 -0.015559349 0.008998077 -0.056009 -0.22889268 0.029403634 0.0583317 0.033131097 0.11778402 -0.13750704 0.055898663 0.14526138 -0.3149642 0.3343451 0.16342 0.20597968 -0.13692948 0.15512897 0.0832766 0.099862136 -0.15934773 -0.049113948 -0.009625908 0.2396659 0.14886327 -0.046004668 -0.108579025 0.061329205 -0.26958787 -0.017369194 0.014758655 -0.03722169 0.12434825 0.08594725 -0.14810258 0.117390685 0.15547214 0.19490156 -0.07415148 0.08914829 -0.08360024 0.11234109 0.14499131 0.11100446 -0.043526687 0.1462857 0.3077507 0.0032822741 0.14552091 -0.018960608 -0.26173198 -0.20873158 0.18817541 0.06855475 0.10008029 -0.35198548 0.08540091 -0.20634441
so 0.113989785 -0.12795211 -0.12910426 0.27668807 0.26926818 -0.26475778 0.13969278 0.3857411 -0.23839901 0.13746476 -0.20793974 -0.14101905 -0.06439652 0.22646548 -0.019887563 -0.13931982 0.0007503426 0.09699955 0.017579757 -0.3879436 0.18440054 -0.17846474 0.029615777 0.019050859 -0.016890692 -0.05103359 -0.08822916 -0.25003237 -0.23577887 0.049204234 0.26129034 0.10993543 0.11824275 -0.08216825 -0.029714622 0.21602255 0.13633022 -0.17618278 -0.16110487 -0.3554632 -0.18723236 -0.05837825 -0.13264616 0.073694594 0.2788179 -0.02130979 -0.14674804 -0.1628574 0.18807207 0.13893946 0.122930095 -0.14798519 0.038116287 -0.0916909 0.055298414 -0.12865044 -0.024699308 -0.1929505 -0.335862 0.058292065 -0.14293152 -0.023967069 0.01783979 -0.07193362 -0.3442276 0.0051316586 -0.07627072 0.45122406 -0.24507952 0.23986031 -0.06257923 0.09700185 0.287117 -0.09017352 0.19351156 0.05290875 0.21236786 -0.22383618 -0.3246092 -0.03876068 -0.09561941 -0.13447103 -0.23673242 0.40114415 -0.29788437 -0.089833125 0.07980493 0.28111017 -0.014391234 0.0670456 0.21453144 0.21892846 0.13170025 0.3116883 0.41388285 0.20969155 -0.008822827 -0.15281223 0.235485 0.11279526 -0.22027932 0.36878297 0.19913745 -0.12214069 -0.18348083 -0.2842834 0.038239963 0.33971256 -0.32649902 -0.3130619 -0.10761624 -0.30133182 -0.039829053 -0.106104925 0.22251767 -0.0868548 0.10106898 -0.45828238 -0.009858027 -0.39291286 0.08939639 0.28739178 0.10463426 -0.20769368 -0.15032108 0.08059491 -0.2234838 -0.12501334 -0.02351354 1.5709466e-05 0.119097546 0.005002513 -0.1021442 -0.06809921 -0.10825632 0.26445422 -0.1701333 -0.17563793 -0.121609814 -0.32739863 0.34671733 -0.29164362 -0.023777029 -0.0152306715 0.036032375 -0.050875567 -0.22313215 0.04150977 0.043616556 0.059457853 0.13472857 -0.18572545 0.085027575 0.15546796 -0.34005275 0.35219842 0.16483454 0.20162912 -0.16778462 0.15939039 0.038073905 0.09703063 -0.17185839 -0.06256143 0.04003506 0.26532665 0.17886163 -0.08690201 -0.11193658 0.05269947 -0.2514529 -0.023220323 -0.022618502 -0.045092896 0.12246203 0.08691015 -0.15851974 0.13297291 0.14415006 0.18117268 -0.08154384 0.08071519 -0.10401044 0.082088485 0.15132225 0.105414145 -0.007393771 0.16662863 0.31174284 -0.01678116 0.12766728 0.02070778 -0.27613205 -0.22890031 0.18252854 0.093737565 0.14154452 -0.3547882 0.10572845 -0.19699521
with 0.11629527 -0.14327562 -0.1340121 0.29878214 0.29720324 -0.29173365 0.15109167 0.42853364 -0.25060445 0.15205371 -0.2300793 -0.14962222 -0.069304906 0.25053948 -0.016638573 -0.15122943 0.00032063498 0.103491545 0.020077623 -0.42219338 0.20098552 -0.20433262 0.026799047 0.020992516 -0.023362547 -0.061134513 -0.09278367 -0.28630444 -0.2626223 0.05036042 0.2849614 0.124829836 0.12969702 -0.08190371 -0.034574386 0.2377143 0.14659165 -0.18991774 -0.18244684 -0.38516775 -0.19854918 -0.059345126 -0.1523655 0.07412759 0.31204364 -0.031326383 -0.15856922 -0.17434813 0.2142542 0.15288684 0.13642552 -0.16316232 0.04452225 -0.09196527 0.051250704 -0.13511308 -0.0285115 -0.21255709 -0.3685869 0.06127612 -0.15686291 -0.017039526 0.018537147 -0.0814017 -0.37141025 0.0053140074 -0.08749297 0.49219328 -0.27060375 0.2571753 -0.060510967 0.11688149 0.32048663 -0.10111169 0.22330575 0.056188494 0.22983637 -0.24385475 -0.3604493 -0.04227578 -0.10902338 -0.15857592 -0.2617978 0.44697914 -0.32908294 -0.098468736 0.09074549 0.3106117 -0.008408435 0.07682458 0.2367859 0.2417314 0.15032588 0.3416798 0.4537739 0.23545362 -0.0126955705 -0.16938438 0.25406554 0.13339789 -0.24329336 0.40975368 0.21654935 -0.13779442 -0.20957777 -0.31574512 0.035841424 0.37563905 -0.36572438 -0.34177265 -0.119174175 -0.32917875 -0.032389745 -0.11713039 0.24173608 -0.09941976 0.11220876 -0.50260776 -0.0035087445 -0.4383564 0.10799606 0.3060107 0.12539442 -0.23290294 -0.17079861 0.095128156 -0.2432056 -0.14202097 -0.027824646 0.0046724263 0.12317564 0.009919717 -0.113219135 -0.07836918 -0.11563789 0.2846409 -0.1966448 -0.19416946 -0.14015327 -0.36146143 0.3832488 -0.3153271 -0.020593183 -0.0156148495 0.036281757 -0.065253414 -0.23842734 0.03799122 0.047902796 0.059956834 0.1450448 -0.20566885 0.0894614 0.16350223 -0.37129745 0.3761867 0.1819241 0.22693451 -0.18678069 0.18039164 0.045377873 0.103694975 -0.18218708 -0.06211211 0.048102956 0.2987182 0.19379288 -0.10483841 -0.12350192 0.05419149 -0.28126758 -0.02150435 -0.025042752 -0.05622128 0.13383543 0.101521194 -0.1804179 0.14278221 0.15807396 0.19898255 -0.09117665 0.090661444 -0.12246615 0.08099951 0.16450493 0.101938345 -0.006266865 0.18500027 0.35265806 -0.011883403 0.14414966 0.019408926 -0.3143121 -0.26253107 0.20998767 0.08993422 0.15764287 -0.3961299 0.1198162 -0.2187981
love 0.09245968 -0.09693248 -0.09288014 0.20299003 0.21344168 -0.21053907 0.10893002 0.29551366 -0.17409712 0.092788346 -0.15957886 -0.10494389 -0.05888384 0.1711542 0.00089709146 -0.09452087 -0.0074661197 0.07435607 0.018590478 -0.2946644 0.14139576 -0.14270547 0.019342849 0.0117283715 -0.020700812 -0.029817455 -0.070121475 -0.19879468 -0.18888801 0.03510549 0.20163812 0.0794121 0.088277735 -0.061758652 -0.019821577 0.17062235 0.10474397 -0.13580167 -0.13385488 -0.2720272 -0.15019 -0.04122402 -0.110717244 0.055723533 0.21646392 -0.024071654 -0.12380141 -0.13629363 0.15123323 0.10579593 0.09848971 -0.109403335 0.038860288 -0.063854836 0.04593714 -0.10580917 -0.0197634 -0.15047407 -0.26358393 0.049205817 -0.11026248 -0.014661095 0.014138489 -0.05895576 -0.26052958 -0.0013780476 -0.057160046 0.3398286 -0.1964371 0.1782753 -0.049377058 0.08065438 0.21298444 -0.074220896 0.15272355 0.04213363 0.15988594 -0.16234402 -0.24961735 -0.024267046 -0.07467853 -0.1039016 -0.17171314 0.3162169 -0.23458463 -0.059243128 0.062298056 0.21888478 -0.015362927 0.049628105 0.16884863 0.17359313 0.09934557 0.23072006 0.3165199 0.15732515 -0.023050595 -0.12393719 0.1851503 0.096019045 -0.1692685 0.28823185 0.15440962 -0.10307418 -0.14072391 -0.21778303 0.03278735 0.25515062 -0.2559752 -0.24069774 -0.07852964 -0.23778068 -0.031639785 -0.08237398 0.17097385 -0.0725 0.079091415 -0.34728238 -0.009355025 -0.3070407 0.07131736 0.20524308 0.07271252 -0.1509732 -0.10963716 0.0563815 -0.16018108 -0.089847244 -0.01766865 9.569035e-05 0.08354552 0.0025486453 -0.08537678 -0.05174695 -0.07471081 0.19813919 -0.12814815 -0.13826734 -0.096000396 -0.24813756 0.26617417 -0.2247613 -0.012298301 -0.001162805 0.033399634 -0.0424145 -0.16613214 0.03216655 0.0310764 0.057383344 0.106891 -0.15156187 0.069807336 0.114273265 -0.25424314 0.2741804 0.121387854 0.15642379 -0.13766153 0.11508863 0.014691039 0.06933276 -0.13409 -0.04640108 0.03493902 0.21490459 0.14062206 -0.06563289 -0.07764851 0.033765927 -0.19232951 -0.0093907425 -0.019951612 -0.04217143 0.091883175 0.07228277 -0.11978764 0.09986589 0.10842622 0.13872334 -0.063079976 0.058088355 -0.0875708 0.05708938 0.12563813 0.075002916 -0.0016565482 0.123887494 0.23577932 -0.007317858 0.09507682 0.018153096 -0.22343983 -0.1820265 0.14830442 0.072105125 0.11732924 -0.27310708 0.0844848 -0.14741667
do 0.10121306 -0.11720902 -0.11798722 0.250275 0.26464614 -0.24544625 0.12520902 0.3540435 -0.21576142 0.115847684 -0.18906547 -0.12720823 -0.07334606 0.2131398 -0.004880598 -0.124861754 -0.0024283545 0.09147208 0.015245261 -0.35353413 0.15425129 -0.17561099 0.037107117 0.011853395 -0.01711992 -0.04738213 -0.085155345 -0.2375004 -0.21965998 0.049651675 0.2335347 0.09955666 0.106901616 -0.07819414 -0.034529306 0.19515282 0.12510371 -0.1604344 -0.14585249 -0.3236149 -0.17319533 -0.052146792 -0.12150476 0.06827692 0.25376284 -0.02321346 -0.13816164 -0.15191384 0.18062966 0.13183695 0.11928931 -0.13462895 0.043067627 -0.07881508 0.0382763 -0.117044345 -0.029321352 -0.17225043 -0.31743327 0.060929712 -0.12759939 -0.013591899 0.018742688 -0.06033121 -0.30848247 -0.0015495926 -0.072082944 0.41791284 -0.2280986 0.21232991 -0.053685877 0.09963332 0.2661793 -0.08611942 0.17921272 0.04436366 0.185529 -0.20095138 -0.29072234 -0.03905141 -0.08232658 -0.13434772 -0.21402365 0.36914343 -0.27021798 -0.07162575 0.081366554 0.26516303 -0.010563541 0.06463175 0.20763491 0.20892055 0.122481905 0.28639248 0.3770078 0.19249484 -0.01654954 -0.13639678 0.22479053 0.10713734 -0.20234759 0.33809406 0.18555887 -0.118522525 -0.17026478 -0.25241867 0.044313747 0.300632 -0.31246167 -0.28557196 -0.10340163 -0.2829418 -0.03250548 -0.11058854 0.2057099 -0.090488866 0.08760759 -0.42408463 -0.01373533 -0.3750357 0.090352654 0.2610189 0.09360369 -0.17760156 -0.13721353 0.07063279 -0.19720168 -0.11884206 -0.031978212 -0.0010297217 0.10258798 0.002952504 -0.09540898 -0.06939734 -0.097968146 0.24178323 -0.16072693 -0.15649393 -0.11983906 -0.29541662 0.32303548 -0.27458 -0.020406611 -0.0036914053 0.038322628 -0.04387208 -0.2006181 0.031477816 0.033743512 0.06692985 0.12160936 -0.17868079 0.07911426 0.13506067 -0.30281946 0.31766492 0.1491783 0.19152765 -0.1679694 0.14976329 0.022132743 0.08980926 -0.152743 -0.055252805 0.037600238 0.2441764 0.17287582 -0.07794328 -0.09635872 0.052055825 -0.22646451 -0.02075308 -0.02561263 -0.049446043 0.11446238 0.07442949 -0.15308036 0.12812294 0.13585953 0.16023202 -0.07447402 0.07584702 -0.104245 0.07024184 0.14076336 0.094825886 -0.00480337 0.16205075 0.29638177 -0.017957501 0.11506778 0.019253137 -0.25387853 -0.21399665 0.16581413 0.08549693 0.13851249 -0.33598682 0.095979586 -0.18511048
be 0.107310385 -0.13072735 -0.11305149 0.26850033 0.27337205 -0.26753268 0.124537505 0.37754017 -0.22487254 0.13342355 -0.20126571 -0.13667467 -0.07096991 0.2311429 -0.0028937787 -0.12813593 -0.011347229 0.08842333 0.024884917 -0.38216263 0.17191781 -0.17965865 0.029597528 0.019899325 -0.023528041 -0.039647177 -0.0835724 -0.24823155 -0.23971078 0.056620937 0.26026046 0.10807713 0.11762326 -0.075011 -0.03337042 0.21101274 0.12879659 -0.17123823 -0.1614911 -0.34914702 -0.18688042 -0.060475968 -0.13323855 0.08005681 0.27397108 -0.022983257 -0.14602698 -0.15704446 0.184083 0.13629515 0.12684654 -0.13322982 0.03938103 -0.08384442 0.054000534 -0.12363035 -0.025197035 -0.18935843 -0.33429414 0.05962769 -0.13642612 -0.014296998 0.016461773 -0.06524008 -0.33702493 0.0052548894 -0.07387817 0.44412926 -0.24046022 0.2334395 -0.062724516 0.09833415 0.2800711 -0.09010884 0.19762544 0.055241857 0.19319738 -0.20873643 -0.3119276 -0.04457312 -0.084110476 -0.13822676 -0.23472749 0.3979606 -0.28273 -0.07478393 0.084413245 0.28832382 -0.012281436 0.06039767 0.21718265 0.2139376 0.121555954 0.30704185 0.39263588 0.20963642 -0.020074718 -0.14429356 0.23457642 0.11887106 -0.20952302 0.36289245 0.19174919 -0.13064969 -0.18971427 -0.27475396 0.041744597 0.32505974 -0.3212683 -0.29621413 -0.113547936 -0.2947835 -0.037334144 -0.11350306 0.2135453 -0.09577351 0.09840307 -0.45186943 -0.015602075 -0.40134472 0.10239006 0.2783733 0.102036804 -0.19755939 -0.1403657 0.07777354 -0.21178842 -0.1300526 -0.027514594 0.007609071 0.111672066 0.010517494 -0.10066932 -0.068476155 -0.0977271 0.26626766 -0.16624865 -0.16791964 -0.1321607 -0.31452113 0.33591825 -0.29075179 -0.030922636 -0.008475041 0.04072428 -0.05796473 -0.2085335 0.042221207 0.039554037 0.06852136 0.1355265 -0.19200629 0.08579607 0.14629501 -0.33888596 0.34457445 0.16167642 0.19269669 -0.17115502 0.15760562 0.029828703 0.090675466 -0.15832108 -0.057631467 0.05108199 0.2642604 0.18125932 -0.0876619 -0.11151557 0.053939108 -0.24116993 -0.021158015 -0.034063064 -0.050171092 0.11348295 0.085375935 -0.16403726 0.12823859 0.14175075 0.18175937 -0.07682394 0.07308111 -0.114794284 0.064063124 0.15578718 0.08770853 0.0017938584 0.16680159 0.3068365 -0.0037969896 0.12738106 0.023661897 -0.27048308 -0.2410012 0.17771798 0.08695721 0.15354396 -0.35133082 0.107919544 -0.1952802
have 0.10760423 -0.12415471 -0.116308585 0.25556582 0.27127248 -0.26463714 0.13113834 0.3710957 -0.22508934 0.121843435 -0.20205806 -0.13608429 -0.07671496 0.22183317 -0.012180296 -0.1273148 -0.011314223 0.089552425 0.019367794 -0.37537837 0.16908708 -0.1721805 0.032048028 0.017182274 -0.021852244 -0.043140206 -0.082649425 -0.24326782 -0.22450551 0.05062926 0.25388026 0.11102087 0.11276977 -0.07401273 -0.035377897 0.20266055 0.13452853 -0.16497634 -0.15497626 -0.3423234 -0.1757889 -0.055134043 -0.13293009 0.078248866 0.26838222 -0.022616286 -0.13838702 -0.16479908 0.18216115 0.1389059 0.115788855 -0.13197996 0.04752067 -0.083185904 0.045032807 -0.12379433 -0.03161281 -0.18243234 -0.32693648 0.05643197 -0.131828 -0.009262405 0.016849784 -0.0741412 -0.32348937 -0.00068128406 -0.06544692 0.43058616 -0.2395607 0.22359835 -0.060758766 0.10320304 0.27424917 -0.08723303 0.18993157 0.053231988 0.19747841 -0.2110832 -0.30984193 -0.039860763 -0.083155625 -0.13550171 -0.22413193 0.3839123 -0.27821413 -0.078930646 0.08591557 0.2724976 -0.022026243 0.060074534 0.20727985 0.21315134 0.1276447 0.2957312 0.394735 0.20196645 -0.011857468 -0.14824937 0.23196521 0.11729216 -0.20832305 0.35997334 0.18160082 -0.13131377 -0.17859374 -0.2706584 0.034799952 0.3197763 -0.31908056 -0.29778728 -0.09981175 -0.29013035 -0.033873077 -0.10667124 0.20798008 -0.09527042 0.09787311 -0.43829837 -0.0064196903 -0.39276615 0.09146522 0.26628676 0.09909161 -0.19560975 -0.1464116 0.06998913 -0.19835322 -0.1260654 -0.028978106 0.0038550696 0.10829424 -0.00073247903 -0.09795538 -0.067505226 -0.09927922 0.2488595 -0.17209946 -0.1653912 -0.11932567 -0.30781403 0.33464086 -0.28452784 -0.023000043 -0.011401199 0.03904571 -0.046701606 -0.20511606 0.032789186 0.037545234 0.06675266 0.13084558 -0.17956938 0.0805494 0.15053199 -0.31981936 0.33720443 0.16092348 0.18667243 -0.16342567 0.14936206 0.028257778 0.09037317 -0.16541222 -0.05941232 0.04858529 0.25788945 0.18322463 -0.088932075 -0.10445992 0.050922155 -0.23785573 -0.030532828 -0.029690316 -0.0410774 0.10842632 0.08185171 -0.16227673 0.13010366 0.13456157 0.17761569 -0.07995677 0.07818085 -0.10522527 0.07046972 0.1523115 0.08756326 -0.0061361636 0.16070403 0.30527478 -0.009478645 0.11834009 0.0192717 -0.2716431 -0.22718768 0.17373118 0.08739964 0.14715211 -0.34619632 0.09392127 -0.1824954
but 0.09139341 -0.11180307 -0.10431011 0.22263531 0.2296904 -0.22473867 0.10913353 0.3140663 -0.1967556 0.10422977 -0.1681517 -0.119332224 -0.062052876 0.1879907 0.0010515159 -0.10656275 -0.003873932 0.07920877 0.014715699 -0.30918428 0.14306192 -0.15098035 0.02254899 0.010905034 -0.010227267 -0.03638336 -0.075780876 -0.2072818 -0.1983859 0.046260722 0.20929332 0.09504511 0.0915269 -0.0723666 -0.032710254 0.1781567 0.10234332 -0.145324 -0.13774876 -0.29071367 -0.1533309 -0.047262315 -0.10978977 0.061404917 0.22167018 -0.01897061 -0.114862956 -0.1398004 0.15427637 0.11965186 0.104172505 -0.12037279 0.042053804 -0.07117294 0.035124507 -0.10686265 -0.02747181 -0.155372 -0.27396527 0.05520544 -0.11005081 -0.015747655 0.011429675 -0.0633394 -0.27752557 0.008993264 -0.06296207 0.3674671 -0.19783463 0.18959914 -0.049639974 0.08373035 0.22956382 -0.07926845 0.16461371 0.037546802 0.16457842 -0.17819987 -0.25719336 -0.036274504 -0.07474946 -0.112220936 -0.1864289 0.324248 -0.23738804 -0.06507796 0.06821951 0.23377016 -0.009049417 0.050531495 0.18391672 0.17454171 0.10385588 0.25498277 0.32648486 0.17565827 -0.00909144 -0.1288274 0.19885224 0.094540715 -0.1825189 0.3012718 0.16460504 -0.10110809 -0.15377581 -0.23009272 0.03334358 0.2717748 -0.27108076 -0.25826856 -0.08878695 -0.25101188 -0.026410658 -0.08805469 0.17425859 -0.08006209 0.07974226 -0.37854975 -0.012672322 -0.32695803 0.0766848 0.22494113 0.08285421 -0.15917502 -0.11990004 0.06919028 -0.17711407 -0.09741993 -0.02732319 6.7603534e-05 0.08671832 0.0045885933 -0.09031313 -0.052248653 -0.08422687 0.21630295 -0.13773149 -0.14635448 -0.108038716 -0.26548925 0.27770874 -0.23636852 -0.01899541 -0.0075250342 0.034867797 -0.04669105 -0.1773715 0.03175853 0.036177475 0.059190914 0.111204855 -0.15366791 0.068519846 0.11978334 -0.27655983 0.2806178 0.13952449 0.16077086 -0.15026687 0.124561906 0.023663875 0.07728959 -0.13034011 -0.043541294 0.033324137 0.21698418 0.15339042 -0.06842358 -0.081938714 0.048205998 -0.19523352 -0.021173751 -0.025160808 -0.035823368 0.10123966 0.072983295 -0.1391488 0.107247055 0.11935864 0.14629935 -0.066771396 0.06903033 -0.0833187 0.04966772 0.12675463 0.073343486 0.002715631 0.14115356 0.25596908 -0.009110803 0.10544563 0.025944117 -0.22588034 -0.1934764 0.1527042 0.08071627 0.12486819 -0.2934029 0.08050948 -0.15741439
m 0.09727599 -0.11519729 -0.12814607 0.25790793 0.25153407 -0.24646461 0.1215472 0.35968655 -0.22503927 0.11725023 -0.18138057 -0.12984386 -0.053892173 0.21023701 -0.023279944 -0.12857121 0.010388782 0.08124011 0.026488487 -0.36742058 0.16798826 -0.16282488 0.015486093 0.021258943 -0.025596721 -0.049980987 -0.090218045 -0.22426248 -0.20992742 0.04641775 0.2516016 0.11110601 0.089443445 -0.069905594 -0.028461376 0.20816587 0.12585887 -0.16390471 -0.15432929 -0.32326636 -0.15342271 -0.047535915 -0.121067055 0.06040774 0.2674426 -0.018175777 -0.12621188 -0.14446639 0.16860238 0.124840215 0.09930353 -0.1331918 0.03801653 -0.078023344 0.04231053 -0.11228735 -0.027671076 -0.1711555 -0.30746946 0.056991406 -0.13040206 -0.018160464 0.026395604 -0.071833916 -0.3142924 0.006547965 -0.06621625 0.41446397 -0.21867819 0.21361239 -0.058241833 0.09478343 0.2531129 -0.08649781 0.18196361 0.05575222 0.18771587 -0.20296168 -0.2927533 -0.048644207 -0.10182735 -0.13173094 -0.22955863 0.3829173 -0.2634917 -0.07667645 0.082771875 0.25999543 -0.0026853574 0.060710803 0.1915105 0.20359515 0.12627013 0.29486012 0.37470505 0.19789201 -0.0025968894 -0.1484063 0.2168079 0.10571526 -0.19290209 0.3455401 0.17112963 -0.115436696 -0.17966036 -0.24773152 0.034735683 0.302597 -0.31102353 -0.28072104 -0.09884201 -0.2684009 -0.03426055 -0.09449361 0.19291934 -0.07398319 0.09979578 -0.43278447 -0.004089891 -0.3640421 0.071315184 0.26647216 0.1000031 -0.1932895 -0.14669949 0.08112713 -0.20981188 -0.11276914 -0.01184655 0.0023709852 0.1107834 0.0011005565 -0.0934756 -0.077242084 -0.09137548 0.2387702 -0.15751077 -0.16844231 -0.10946414 -0.31031674 0.32305694 -0.27905568 -0.025176885 -0.007842642 0.024284577 -0.045746986 -0.21372648 0.039449655 0.04536862 0.04354155 0.12300679 -0.16533987 0.07584768 0.14156559 -0.3093339 0.32605857 0.15933268 0.19578908 -0.15702333 0.14402641 0.037606515 0.09182092 -0.15358745 -0.0496454 0.02824199 0.2441302 0.16294378 -0.069351144 -0.09970584 0.051689193 -0.24520421 -0.024099972 -0.014939071 -0.036792997 0.11261517 0.07647875 -0.14919463 0.124904916 0.14162867 0.17536293 -0.07630141 0.07628426 -0.089992404 0.07665068 0.1363607 0.093559876 -0.015468137 0.1545905 0.29489517 -0.0033509934 0.11921072 0.014821857 -0.2573071 -0.21059647 0.17031033 0.072201006 0.124096826 -0.3378641 0.09777316 -0.18093719
can 0.11441859 -0.13373378 -0.12005037 0.27112156 0.28982237 -0.27729705 0.13976441 0.39082056 -0.24997696 0.13956988 -0.21203868 -0.14714672 -0.08124724 0.23175985 -0.00093417405 -0.13597552 -0.006485181 0.09596152 0.018034896 -0.39792815 0.18407167 -0.18979716 0.027064195 0.013485514 -0.025336772 -0.048505098 -0.08599391 -0.25812304 -0.25008956 0.05399648 0.26923716 0.11195381 0.11732574 -0.08737307 -0.038144585 0.22334759 0.14537068 -0.18186106 -0.16995145 -0.36248985 -0.19283482 -0.067665264 -0.14151096 0.08364966 0.28241697 -0.028858256 -0.14442903 -0.17271478 0.19502287 0.15228881 0.13232155 -0.15089963 0.055704318 -0.086088456 0.04993082 -0.12624754 -0.03888263 -0.20127246 -0.3520679 0.06021597 -0.14685495 -0.008842488 0.02257733 -0.08005503 -0.3420066 0.005324751 -0.06758115 0.46791756 -0.25917318 0.24368665 -0.05565257 0.11046585 0.29523596 -0.10098958 0.207019 0.0602864 0.20611669 -0.22024876 -0.3223374 -0.04025917 -0.09061308 -0.14984481 -0.23818691 0.41478997 -0.3077732 -0.07434236 0.07918337 0.29067764 -0.013855404 0.07559884 0.22774886 0.23205464 0.13578472 0.30803648 0.419756 0.2112596 -0.019430378 -0.16502388 0.2537826 0.120762415 -0.2199374 0.37963295 0.19941817 -0.13817544 -0.19230725 -0.28830546 0.042539753 0.34330037 -0.347182 -0.31773326 -0.11763248 -0.30151412 -0.03300458 -0.11727895 0.22209819 -0.09624309 0.10442343 -0.47335017 -0.019746764 -0.42054877 0.09915873 0.29279 0.09594572 -0.20585085 -0.15393484 0.08268412 -0.22288848 -0.12419589 -0.029972494 0.008901977 0.108414575 0.010313415 -0.11985636 -0.075312674 -0.10511498 0.2674347 -0.17855722 -0.17675696 -0.12896547 -0.3348238 0.34973982 -0.30613846 -0.01746505 -0.0043609305 0.052649833 -0.049694326 -0.22275528 0.045878567 0.036076188 0.07061547 0.14008449 -0.19244134 0.09421504 0.15194601 -0.34591848 0.35631493 0.17139661 0.2126825 -0.18731369 0.16357478 0.017631998 0.0906256 -0.17492664 -0.059010386 0.05143534 0.2850907 0.19372655 -0.08536111 -0.10776969 0.050384644 -0.2482036 -0.022436088 -0.029659966 -0.042074855 0.12047814 0.08856426 -0.17447676 0.14635257 0.15697984 0.1773863 -0.08126273 0.08839111 -0.10835281 0.074268654 0.17186263 0.099598445 0.00234656 0.17520861 0.31856793 -0.012658005 0.13460335 0.029537708 -0.2909436 -0.24771722 0.19127418 0.09673536 0.15652601 -0.37855518 0.10731804 -0.19264613
get 0.11421485 -0.12982377 -0.1247626 0.2817324 0.28915298 -0.27164298 0.13577667 0.39655447 -0.2440887 0.14125346 -0.21205574 -0.13693129 -0.08201556 0.23349409 -0.0070785447 -0.13907656 -0.0047540446 0.09932993 0.029112397 -0.39513087 0.1751115 -0.18239343 0.025217207 0.018918788 -0.016288908 -0.05430076 -0.09502022 -0.26485023 -0.24320167 0.05667192 0.26204374 0.11457476 0.12292379 -0.08472261 -0.033063386 0.22090536 0.1371563 -0.18479599 -0.16466548 -0.36397946 -0.18371093 -0.0613717 -0.13752273 0.079064295 0.28370157 -0.02509151 -0.1508289 -0.16358063 0.19559398 0.14462332 0.12704875 -0.13790876 0.042662855 -0.0855292 0.052115865 -0.13011383 -0.029359387 -0.18898521 -0.34083647 0.05865925 -0.14522867 -0.010946865 0.020329777 -0.08064096 -0.34819075 -0.0019780444 -0.07351799 0.45762855 -0.2518601 0.23967278 -0.051354997 0.11088335 0.29332298 -0.092872664 0.20827349 0.05144946 0.21582648 -0.22686078 -0.33273554 -0.046785858 -0.094104916 -0.13787054 -0.23739612 0.407644 -0.30198994 -0.08551292 0.08280079 0.29795167 -0.011134425 0.06937082 0.22211406 0.2269971 0.12634619 0.3171299 0.42075357 0.22159556 -0.012424636 -0.16146193 0.24815154 0.11764734 -0.22212295 0.38137573 0.19923402 -0.13349357 -0.19194773 -0.28596 0.037726972 0.34977934 -0.33837083 -0.31602457 -0.11293162 -0.3085195 -0.042960066 -0.11573801 0.22460051 -0.09024842 0.105710655 -0.4745106 -0.0069834944 -0.4145571 0.09911857 0.29492378 0.11301185 -0.2055805 -0.15774684 0.08579515 -0.2147557 -0.12519124 -0.027998231 0.010102107 0.12209502 -0.0012477586 -0.10407125 -0.072674625 -0.10966873 0.27018857 -0.1724033 -0.18416367 -0.12467255 -0.33606607 0.34627655 -0.29738945 -0.02597211 -0.0074698767 0.044400513 -0.047607545 -0.21867345 0.033361766 0.043113355 0.05799371 0.13962874 -0.18346465 0.083791934 0.15637614 -0.3461058 0.35140944 0.17571165 0.20855822 -0.17496109 0.16151786 0.031016402 0.098593555 -0.17600603 -0.055250876 0.044870988 0.27714536 0.18243551 -0.08802029 -0.10496127 0.052447908 -0.26034907 -0.030242331 -0.036082506 -0.038951904 0.119028054 0.08849677 -0.17358461 0.13510396 0.14338394 0.18646841 -0.08004576 0.08297614 -0.100076765 0.07396032 0.16679648 0.10310373 -0.005062604 0.17425133 0.31653285 -0.013711216 0.13405736 0.017507927 -0.28246164 -0.24711993 0.19817172 0.092507236 0.1535406 -0.37261632 0.10723264 -0.20354535
your 0.11922301 -0.13813798 -0.13928509 0.3064546 0.31394222 -0.29885596 0.15776016 0.43695804 -0.2588443 0.1473428 -0.22740681 -0.15109427 -0.07652451 0.2632813 -0.015082092 -0.15596783 0.0029471722 0.10567582 0.027043073 -0.43937802 0.20487507 -0.21204442 0.026834657 0.021106169 -0.015587187 -0.06103324 -0.0961451 -0.28987953 -0.2735217 0.050267 0.28999874 0.13020486 0.12774965 -0.089000106 -0.03655749 0.246851 0.15933876 -0.20121655 -0.18666013 -0.3998973 -0.20919633 -0.06467233 -0.14849094 0.08099115 0.32188147 -0.030182132 -0.16794446 -0.17725731 0.22013366 0.15982965 0.13579552 -0.15599939 0.04418293 -0.09440476 0.0566621 -0.14879717 -0.02492631 -0.2191592 -0.38010523 0.058529966 -0.1575991 -0.019961566 0.028179875 -0.08761104 -0.39035913 0.008063671 -0.08388557 0.5044389 -0.28029937 0.26514077 -0.070241824 0.11661921 0.3201088 -0.1005527 0.2258015 0.06575374 0.22582795 -0.24487558 -0.36821455 -0.044833492 -0.10644508 -0.15481064 -0.26906323 0.4577588 -0.32748842 -0.088561825 0.10110455 0.31614643 -0.010411989 0.0828043 0.24325041 0.2521865 0.14634918 0.35072938 0.46191025 0.24264373 -0.01895541 -0.18064344 0.27314916 0.1280615 -0.24803166 0.41726762 0.22164474 -0.14673631 -0.21436995 -0.323683 0.040582605 0.37660903 -0.37484363 -0.34510076 -0.12094584 -0.33496717 -0.038639594 -0.1304497 0.25247785 -0.10290241 0.11612999 -0.5148765 -0.008779394 -0.45022225 0.108664155 0.31826276 0.1271597 -0.22582175 -0.17041472 0.08995274 -0.24405338 -0.14659527 -0.022000797 0.004716429 0.13246536 0.007723365 -0.11836388 -0.079479404 -0.12094053 0.30183488 -0.19349612 -0.20044969 -0.148167 -0.37234354 0.39402425 -0.32463855 -0.028633876 -0.020483173 0.041438747 -0.060776576 -0.252332 0.04312998 0.048661985 0.06123288 0.15487292 -0.2141611 0.08891582 0.17073406 -0.39139855 0.39061013 0.17997018 0.22600698 -0.19353001 0.17842618 0.045559987 0.11097831 -0.19358993 -0.0716088 0.05366303 0.3041827 0.20626089 -0.101186045 -0.12538837 0.056362107 -0.28823406 -0.020970346 -0.034869477 -0.050701518 0.1287741 0.105013475 -0.18757045 0.15246221 0.15775344 0.20284699 -0.09002197 0.08081444 -0.12720862 0.087300286 0.16869979 0.113733314 -0.0046462906 0.18371022 0.35671043 -0.01164825 0.15145606 0.02269623 -0.31988004 -0.26589134 0.21793574 0.09578947 0.16930111 -0.4035211 0.11333719 -0.22361752
just 0.10661843 -0.12854949 -0.11560825 0.2561948 0.27165854 -0.2604675 0.12625289 0.37019756 -0.21779768 0.13078186 -0.19782035 -0.13006169 -0.07428066 0.21901469 -0.01267286 -0.12798795 -0.005354422 0.08845863 0.014538511 -0.36660883 0.17189834 -0.1738716 0.029368646 0.01759121 -0.015726695 -0.044179987 -0.08671192 -0.2440719 -0.22965191 0.05082032 0.24701004 0.11059818 0.11488687 -0.079145126 -0.03815613 0.20980732 0.12906969 -0.16868131 -0.16211553 -0.33508688 -0.1805015 -0.053941254 -0.13120204 0.068972625 0.26967672 -0.032806408 -0.13925825 -0.16119738 0.19038868 0.14070942 0.11439167 -0.136403 0.0380271 -0.075714596 0.052999046 -0.12028649 -0.019972093 -0.18559921 -0.3224912 0.055995386 -0.1401932 -0.01882913 0.017949594 -0.07352144 -0.33143348 0.003008041 -0.07328476 0.4253209 -0.2320561 0.22772253 -0.05904743 0.10074371 0.27140716 -0.08349106 0.19016641 0.05445628 0.20079692 -0.2133414 -0.31423497 -0.03951697 -0.081027456 -0.1356391 -0.2245583 0.38657048 -0.2885079 -0.07797915 0.075353704 0.2798866 -0.016713204 0.07125301 0.2061252 0.21142426 0.123374924 0.29632595 0.3926492 0.2041668 -0.013778865 -0.14417906 0.22649096 0.107988186 -0.21516716 0.35806522 0.18758401 -0.12798616 -0.17755014 -0.27450082 0.036554463 0.32977661 -0.31332928 -0.29902914 -0.10400221 -0.28553578 -0.025571201 -0.10896899 0.2097006 -0.09017025 0.09693245 -0.43766034 -0.008588453 -0.38983527 0.09737086 0.26859394 0.09818009 -0.20076044 -0.13837184 0.07963994 -0.2082554 -0.11658885 -0.027200487 -0.0027374395 0.10392211 0.0031558287 -0.106153704 -0.063939705 -0.09691 0.25486097 -0.16925317 -0.17361763 -0.120667614 -0.31411985 0.33072942 -0.28180677 -0.025172155 -0.017923776 0.040851206 -0.056181222 -0.20422219 0.031910304 0.033809204 0.060441494 0.12854016 -0.17787834 0.07647225 0.14553331 -0.32059586 0.33423844 0.15881819 0.19804361 -0.16859032 0.15270847 0.03351135 0.08639906 -0.1574367 -0.061450724 0.04293449 0.26379752 0.17230053 -0.09048289 -0.10115136 0.053489327 -0.23791787 -0.026115458 -0.02392294 -0.0421697 0.11144188 0.083209135 -0.15868261 0.1218429 0.13381357 0.17850213 -0.08127165 0.07187743 -0.10637502 0.06286771 0.14970006 0.096990906 -0.0029077649 0.15915804 0.30686495 -0.015879206 0.12026894 0.014343922 -0.2613222 -0.22759765 0.17654915 0.08237358 0.14875816 -0.34485558 0.09621176 -0.18653512
u 0.11319178 -0.12999144 -0.12146443 0.28125468 0.28866214 -0.28268495 0.13680053 0.40655 -0.24063697 0.14363211 -0.22025311 -0.14291564 -0.084560536 0.24361967 -0.0037597087 -0.13783866 -0.008259494 0.10375104 0.020254143 -0.40478775 0.17951061 -0.19529377 0.028768364 0.021202274 -0.02369858 -0.05519212 -0.09498501 -0.27144384 -0.25057557 0.053181868 0.27177176 0.115257904 0.11509662 -0.08583099 -0.033512414 0.21913242 0.1476517 -0.184095 -0.16734794 -0.3757724 -0.19869588 -0.05669166 -0.15253653 0.076632746 0.2851359 -0.024937348 -0.16039231 -0.17312028 0.20909728 0.15241314 0.12285881 -0.14677042 0.052865837 -0.092680685 0.055293024 -0.13030115 -0.02500894 -0.20196112 -0.35266098 0.062354725 -0.15674879 -0.012978724 0.016907776 -0.07514386 -0.35791123 -0.0030216738 -0.07841153 0.47294623 -0.26042235 0.25402963 -0.054519616 0.10537459 0.29530716 -0.09897014 0.20609088 0.054294646 0.22477314 -0.23040804 -0.34407437 -0.036266815 -0.09710119 -0.15072244 -0.24176957 0.432197 -0.31798878 -0.088664375 0.08710027 0.3043354 -0.013951931 0.069349684 0.22352107 0.23441727 0.13788797 0.32585934 0.43292052 0.22554079 -0.01869861 -0.16303088 0.2572408 0.1262141 -0.23049293 0.39611614 0.20285295 -0.13613364 -0.19509004 -0.30226955 0.04394606 0.35724172 -0.34952956 -0.3255859 -0.1091098 -0.31306252 -0.03943297 -0.11495425 0.2348754 -0.09133448 0.11019789 -0.48217922 -0.012677645 -0.4303218 0.09852169 0.2923789 0.10940407 -0.2127643 -0.15694724 0.08521299 -0.22282332 -0.13803911 -0.026005108 0.008977318 0.12508485 0.0046024215 -0.111097075 -0.0714049 -0.11534986 0.272476 -0.18435957 -0.18450844 -0.13147813 -0.3434103 0.3657112 -0.31124824 -0.019162985 -0.011879226 0.03962758 -0.052469894 -0.22457737 0.03463064 0.03842473 0.07525156 0.1398576 -0.19545303 0.086107746 0.164581 -0.3511353 0.36897928 0.17331585 0.21245241 -0.1863291 0.16031142 0.03416156 0.09085954 -0.17614515 -0.058609612 0.057651404 0.2828094 0.19557115 -0.10121411 -0.10857367 0.058405142 -0.2596814 -0.02792017 -0.034423765 -0.053395644 0.123753525 0.09302919 -0.17735422 0.14212377 0.1477301 0.19459246 -0.08433465 0.082771085 -0.11080091 0.0714808 0.16517459 0.10199013 -0.0063494025 0.18431333 0.33127153 -0.015659433 0.13737464 0.021679932 -0.29310247 -0.24810165 0.20162137 0.09808592 0.15815875 -0.3798212 0.1018243 -0.19998437
day 0.109306425 -0.114084035 -0.107676834 0.24615441 0.26522017 -0.25755614 0.12811182 0.36004886 -0.21245228 0.11754059 -0.18903312 -0.13306794 -0.0682892 0.22063936 -0.01715486 -0.11976034 -0.01137839 0.09623392 0.014645752 -0.36670214 0.16338381 -0.1699919 0.021479243 0.017960606 -0.026466435 -0.03852009 -0.08173193 -0.24209294 -0.22633077 0.05089709 0.24824706 0.09967601 0.109351255 -0.07811571 -0.027903127 0.20619984 0.12562309 -0.16171339 -0.15038146 -0.33703944 -0.17242531 -0.049514987 -0.136055 0.069352865 0.26661846 -0.024702176 -0.13179533 -0.15301369 0.18661194 0.12914741 0.11698504 -0.13840708 0.04329757 -0.07398281 0.048398096 -0.11366648 -0.03362569 -0.17685942 -0.31250447 0.051168602 -0.1262866 -0.019744558 0.016584387 -0.063189834 -0.31179714 0.0036224534 -0.06480907 0.41194296 -0.23045962 0.2216477 -0.05642099 0.0995278 0.2685292 -0.08735046 0.18362617 0.056560166 0.18511008 -0.21060616 -0.29841107 -0.04019552 -0.08436783 -0.12916279 -0.22415543 0.37780744 -0.27808952 -0.07972327 0.08210162 0.26839167 -0.013626818 0.069365196 0.20021322 0.20964332 0.1234446 0.29010728 0.3866423 0.19409026 -0.01434946 -0.14878178 0.2264907 0.10635659 -0.20542105 0.34940144 0.18108734 -0.118431 -0.17401059 -0.26207948 0.032402653 0.30853608 -0.30167973 -0.28124404 -0.1086641 -0.2859512 -0.031365123 -0.09838614 0.20235771 -0.07947053 0.09275019 -0.4289201 -0.0052538626 -0.3766389 0.08818888 0.2653368 0.10147356 -0.19341312 -0.14304298 0.07293225 -0.19588034 -0.119347855 -0.021651609 0.0019267651 0.10733684 0.0025658926 -0.095058315 -0.058962714 -0.10362489 0.24978693 -0.17003177 -0.171778 -0.11565796 -0.30005938 0.32736665 -0.28002152 -0.015311216 -0.0148314675 0.031547993 -0.04855184 -0.20571275 0.03702733 0.033921488 0.055230692 0.13519679 -0.17772922 0.08165139 0.14177087 -0.31747746 0.3315032 0.1600335 0.18776071 -0.1699799 0.14496444 0.031952318 0.08907426 -0.16280192 -0.056214795 0.049982462 0.24887764 0.17183329 -0.084782846 -0.10361459 0.04354798 -0.23012099 -0.022387119 -0.032503624 -0.043719377 0.11555568 0.089605786 -0.15742913 0.12104908 0.13785544 0.17082669 -0.08370628 0.06825406 -0.10417818 0.06984628 0.14951569 0.08576942 0.00059831573 0.15365554 0.2936036 -0.01299318 0.122754 0.019713864 -0.26116186 -0.22423658 0.17247231 0.08250567 0.13958469 -0.33510086 0.10252263 -0.18120784
are 0.11583482 -0.12743872 -0.1208572 0.27244404 0.28733575 -0.26880407 0.13238886 0.39170912 -0.23788491 0.13427602 -0.21330915 -0.14381357 -0.07853047 0.23739503 -0.007586722 -0.13497159 -0.009504613 0.09958827 0.02411597 -0.3860929 0.17973718 -0.19229598 0.03668472 0.015290057 -0.016961703 -0.04377758 -0.08301591 -0.2588418 -0.24802606 0.04927838 0.2630317 0.11198817 0.118173026 -0.07629174 -0.031307098 0.21435808 0.14334221 -0.1814799 -0.16984798 -0.35699025 -0.19367501 -0.053788695 -0.14315268 0.06902794 0.27403823 -0.026946714 -0.14704257 -0.16329959 0.19689792 0.14813589 0.123711444 -0.1478128 0.05159245 -0.08772397 0.056612674 -0.12999256 -0.030042617 -0.1950006 -0.33835346 0.058851115 -0.14076935 -0.017283242 0.022165345 -0.07648258 -0.3477302 -0.001400646 -0.079463795 0.45155618 -0.25415623 0.24538237 -0.0542875 0.10290937 0.28316763 -0.09651061 0.19489673 0.053249985 0.20672312 -0.2166132 -0.32189006 -0.037652064 -0.08453472 -0.14554818 -0.24162407 0.4078867 -0.30574858 -0.08541597 0.084510654 0.28295237 -0.01677424 0.07046136 0.2207789 0.2230907 0.1301229 0.315032 0.41401002 0.21139905 -0.022082042 -0.15923208 0.2422804 0.11986392 -0.22793753 0.37246364 0.19462498 -0.13436382 -0.18825546 -0.28486001 0.043622147 0.34043548 -0.32994023 -0.30636027 -0.1075775 -0.30421543 -0.030461218 -0.111311816 0.22817044 -0.099781856 0.10607613 -0.4577517 -0.005817164 -0.40993235 0.10613054 0.2847968 0.09922579 -0.19884343 -0.1543281 0.083561234 -0.221003 -0.13144448 -0.025812883 0.0021462976 0.10807906 0.004032406 -0.112711266 -0.06798998 -0.09692966 0.2634173 -0.17174502 -0.17741984 -0.1257793 -0.323161 0.34222108 -0.28992525 -0.026686339 -0.0061783334 0.038307235 -0.050230235 -0.2157594 0.04394771 0.042818382 0.06947497 0.14052032 -0.1899956 0.0866751 0.15213391 -0.33899254 0.35256612 0.16986094 0.2077103 -0.1742507 0.16055374 0.027142618 0.09392167 -0.17125899 -0.0635636 0.043026403 0.27571195 0.18055537 -0.0850416 -0.10906402 0.050801124 -0.25478077 -0.019481063 -0.026711525 -0.047046036 0.11744801 0.086655214 -0.1666729 0.14192234 0.13630927 0.1823488 -0.08163864 0.08319862 -0.10826556 0.07372804 0.16266496 0.10230237 -0.007468571 0.16614307 0.31483415 -0.0117188655 0.13161969 0.021722876 -0.28371444 -0.23550613 0.19194873 0.095905505 0.15935363 -0.3596357 0.10523849 -0.20198755
all 0.12213746 -0.1392626 -0.126904 0.2882648 0.3030491 -0.2859095 0.1521995 0.41259322 -0.25037593 0.14003609 -0.22664593 -0.14945677 -0.07285586 0.25204334 -0.014549182 -0.14481059 -0.009136286 0.10670166 0.027159812 -0.41364014 0.19722685 -0.204563 0.024071299 0.024331292 -0.019076103 -0.056804344 -0.09197877 -0.27584273 -0.25503555 0.05342091 0.27705705 0.1253016 0.120784044 -0.08785923 -0.03125922 0.23689778 0.15123656 -0.18306978 -0.1765551 -0.38636613 -0.20058838 -0.061498027 -0.14786792 0.08434856 0.3038689 -0.030459665 -0.16027962 -0.17260744 0.21249712 0.15033405 0.13320032 -0.14923869 0.048051436 -0.08732591 0.051365852 -0.14183491 -0.034386907 -0.20740828 -0.3661637 0.06532924 -0.1536981 -0.013132143 0.020725729 -0.07873054 -0.37130207 0.0012579742 -0.07835215 0.48507887 -0.2656909 0.25750804 -0.065175995 0.116467915 0.302995 -0.10026975 0.2130223 0.05654758 0.22253948 -0.24180542 -0.34085068 -0.036947247 -0.093083374 -0.1512738 -0.2521474 0.42909172 -0.31376302 -0.09352148 0.09514185 0.3113854 -0.011354078 0.07695066 0.22752456 0.2420915 0.13472396 0.33317456 0.4334415 0.22579005 -0.016996026 -0.16581817 0.26246518 0.12887755 -0.23969811 0.3997971 0.2120253 -0.14288692 -0.19822116 -0.30367073 0.041788705 0.3579187 -0.35007063 -0.325503 -0.11894793 -0.3288839 -0.036778934 -0.113737434 0.22810128 -0.10399193 0.112401485 -0.49127144 -0.014162945 -0.43669355 0.11056402 0.30594343 0.10711656 -0.22371058 -0.15858026 0.08521051 -0.23087619 -0.13764708 -0.0325553 0.00057200814 0.12263226 0.008602719 -0.11959752 -0.080265865 -0.118304454 0.28268987 -0.19387527 -0.19055702 -0.13193387 -0.35204133 0.36917385 -0.3077529 -0.021326711 -0.013063373 0.040610474 -0.063756146 -0.23564258 0.041705485 0.046734475 0.066476904 0.15524764 -0.20794499 0.091914564 0.16949235 -0.3666736 0.38115954 0.17401807 0.2198673 -0.19283201 0.16768701 0.03200661 0.10201393 -0.17729962 -0.071271345 0.047794882 0.2866192 0.19084619 -0.096535556 -0.11151776 0.051291917 -0.26296175 -0.019495169 -0.03667612 -0.052529253 0.1285724 0.10100164 -0.17548098 0.14778845 0.14802411 0.18950287 -0.09707769 0.08652575 -0.11993346 0.072822705 0.16526002 0.10276212 0.0015550242 0.17700881 0.3405972 -0.011563612 0.14367063 0.02756097 -0.30440345 -0.2590061 0.19934545 0.09798046 0.16719867 -0.37897393 0.1140648 -0.20410019
